{"learner":{"attributes":{"scikit_learn":"{\"_estimator_type\": \"regressor\"}"},"feature_names":[],"feature_types":[],"gradient_booster":{"gbtree":{"model":{"gbtree_model_param":{"num_parallel_tree":"1","num_trees":"314"},"iteration_indptr":[0,1,2,3,4,5,6,7,8,9,10,11,12,13,14,15,16,17,18,19,20,21,22,23,24,25,26,27,28,29,30,31,32,33,34,35,36,37,38,39,40,41,42,43,44,45,46,47,48,49,50,51,52,53,54,55,56,57,58,59,60,61,62,63,64,65,66,67,68,69,70,71,72,73,74,75,76,77,78,79,80,81,82,83,84,85,86,87,88,89,90,91,92,93,94,95,96,97,98,99,100,101,102,103,104,105,106,107,108,109,110,111,112,113,114,115,116,117,118,119,120,121,122,123,124,125,126,127,128,129,130,131,132,133,134,135,136,137,138,139,140,141,142,143,144,145,146,147,148,149,150,151,152,153,154,155,156,157,158,159,160,161,162,163,164,165,166,167,168,169,170,171,172,173,174,175,176,177,178,179,180,181,182,183,184,185,186,187,188,189,190,191,192,193,194,195,196,197,198,199,200,201,202,203,204,205,206,207,208,209,210,211,212,213,214,215,216,217,218,219,220,221,222,223,224,225,226,227,228,229,230,231,232,233,234,235,236,237,238,239,240,241,242,243,244,245,246,247,248,249,250,251,252,253,254,255,256,257,258,259,260,261,262,263,264,265,266,267,268,269,270,271,272,273,274,275,276,277,278,279,280,281,282,283,284,285,286,287,288,289,290,291,292,293,294,295,296,297,298,299,300,301,302,303,304,305,306,307,308,309,310,311,312,313,314],"tree_info":[0,0,0,0,0,0,0,0,0,0,0,0,0,0,0,0,0,0,0,0,0,0,0,0,0,0,0,0,0,0,0,0,0,0,0,0,0,0,0,0,0,0,0,0,0,0,0,0,0,0,0,0,0,0,0,0,0,0,0,0,0,0,0,0,0,0,0,0,0,0,0,0,0,0,0,0,0,0,0,0,0,0,0,0,0,0,0,0,0,0,0,0,0,0,0,0,0,0,0,0,0,0,0,0,0,0,0,0,0,0,0,0,0,0,0,0,0,0,0,0,0,0,0,0,0,0,0,0,0,0,0,0,0,0,0,0,0,0,0,0,0,0,0,0,0,0,0,0,0,0,0,0,0,0,0,0,0,0,0,0,0,0,0,0,0,0,0,0,0,0,0,0,0,0,0,0,0,0,0,0,0,0,0,0,0,0,0,0,0,0,0,0,0,0,0,0,0,0,0,0,0,0,0,0,0,0,0,0,0,0,0,0,0,0,0,0,0,0,0,0,0,0,0,0,0,0,0,0,0,0,0,0,0,0,0,0,0,0,0,0,0,0,0,0,0,0,0,0,0,0,0,0,0,0,0,0,0,0,0,0,0,0,0,0,0,0,0,0,0,0,0,0,0,0,0,0,0,0,0,0,0,0,0,0,0,0,0,0,0,0,0,0,0,0,0,0,0,0,0,0,0,0,0,0,0,0,0,0,0,0,0,0,0,0],"trees":[{"base_weights":[-3.307292E1,-2.3938455E4,1.2332483E5,-4.1714367E4,2.9477717E4,8.5855734E4,1.7718666E5,-5.6889938E4,-1.9780445E4,1.7223705E4,5.827465E4,6.770998E4,1.3726872E5,1.5258384E5,2.4006052E5,-8.171049E4,-4.8398695E4,-4.434685E4,-9.870135E3,-9.064408E3,2.7275041E4,3.804688E4,9.081497E4,-2.3146203E4,7.3388484E4,1.1899869E5,1.920788E5,1.47041E5,2.2056455E4,2.6144886E5,6.895379E4,-5.6292354E3,-3.9193706E3,-2.9884167E3,-1.7229689E3,-2.669874E3,6.923328E2,-7.105479E2,2.2642207E3,-1.0705775E3,4.1989053E2,1.296306E3,4.698763E3,1.5087534E3,4.185223E3,2.144066E3,5.9844106E3,-3.2327231E3,-6.1565356E2,4.517533E3,2.1000093E3,6.1962095E3,1.21843955E4,7.1642314E3,1.2225547E4,5.5797246E3,8.778207E3,1.2968055E4,2.0308799E4,7.3562593E3,2.1006767E2],"categories":[],"categories_nodes":[],"categories_segments":[],"categories_sizes":[],"default_left":[0,0,0,0,0,0,0,0,0,0,0,0,0,0,0,0,0,0,0,0,0,0,0,0,0,0,0,0,0,0,0,0,0,0,0,0,0,0,0,0,0,0,0,0,0,0,0,0,0,0,0,0,0,0,0,0,0,0,0,0,0],"id":0,"left_children":[1,3,5,7,9,11,13,15,17,19,21,23,25,27,29,31,33,35,37,39,41,43,45,47,49,51,53,55,-1,57,59,-1,-1,-1,-1,-1,-1,-1,-1,-1,-1,-1,-1,-1,-1,-1,-1,-1,-1,-1,-1,-1,-1,-1,-1,-1,-1,-1,-1,-1,-1],"loss_changes":[2.83391E12,7.643645E11,3.1483206E11,2.0104734E11,7.092848E10,8.582929E10,9.899999E10,7.524031E10,6.0134793E10,3.725653E10,3.9493075E10,3.5083125E10,2.4033198E10,6.3596855E10,6.5874362E10,1.9531629E10,2.7438875E10,1.7454612E10,2.772732E10,6.8122296E9,2.1717688E10,1.4921654E10,2.1727953E10,1.706467E9,2.0113195E10,1.1250516E10,1.1346756E10,2.643316E10,0E0,4.363459E10,8.4825293E9,0E0,0E0,0E0,0E0,0E0,0E0,0E0,0E0,0E0,0E0,0E0,0E0,0E0,0E0,0E0,0E0,0E0,0E0,0E0,0E0,0E0,0E0,0E0,0E0,0E0,0E0,0E0,0E0,0E0,0E0],"parents":[2147483647,0,0,1,1,2,2,3,3,4,4,5,5,6,6,7,7,8,8,9,9,10,10,11,11,12,12,13,13,14,14,15,15,16,16,17,17,18,18,19,19,20,20,21,21,22,22,23,23,24,24,25,25,26,26,27,27,29,29,30,30],"right_children":[2,4,6,8,10,12,14,16,18,20,22,24,26,28,30,32,34,36,38,40,42,44,46,48,50,52,54,56,-1,58,60,-1,-1,-1,-1,-1,-1,-1,-1,-1,-1,-1,-1,-1,-1,-1,-1,-1,-1,-1,-1,-1,-1,-1,-1,-1,-1,-1,-1,-1,-1],"split_conditions":[1.3747946E0,6.5147924E-1,1.7244883E0,-7.1836114E-2,5.014572E-1,1.5276563E0,1.9258028E0,-7.5345033E-1,3.1172463E-1,-4.8438492E-1,1.1078101E0,-8.4693915E-1,1.4287158E0,3.3739958E0,1.6557775E0,2.6381257E-1,9.6482195E-2,5.256182E0,1.569754E0,8.235053E-1,1.7622472E0,1.2993468E0,-2.2216013E-1,1.5186527E-1,3.9726074E0,1.8577834E0,2.4972396E-1,1.6503069E0,2.2056455E4,2.7585492E0,2.0886474E0,-5.6292354E3,-3.9193706E3,-2.9884167E3,-1.7229689E3,-2.669874E3,6.923328E2,-7.105479E2,2.2642207E3,-1.0705775E3,4.1989053E2,1.296306E3,4.698763E3,1.5087534E3,4.185223E3,2.144066E3,5.9844106E3,-3.2327231E3,-6.1565356E2,4.517533E3,2.1000093E3,6.1962095E3,1.21843955E4,7.1642314E3,1.2225547E4,5.5797246E3,8.778207E3,1.2968055E4,2.0308799E4,7.3562593E3,2.1006767E2],"split_indices":[2,2,241,2,0,21,10,10,24,10,15,10,10,21,0,247,249,85,12,208,12,12,10,5,46,0,23,24,0,21,0,0,0,0,0,0,0,0,0,0,0,0,0,0,0,0,0,0,0,0,0,0,0,0,0,0,0,0,0,0,0],"split_type":[0,0,0,0,0,0,0,0,0,0,0,0,0,0,0,0,0,0,0,0,0,0,0,0,0,0,0,0,0,0,0,0,0,0,0,0,0,0,0,0,0,0,0,0,0,0,0,0,0,0,0,0,0,0,0,0,0,0,0,0,0],"sum_hessian":[9.61E2,8.05E2,1.56E2,6.04E2,2.01E2,9.2E1,6.4E1,3.57E2,2.47E2,1.41E2,6E1,6.8E1,2.4E1,4.6E1,1.8E1,9.1E1,2.66E2,7.1E1,1.76E2,3.9E1,1.02E2,3.7E1,2.3E1,4E0,6.4E1,1.8E1,6E0,4.5E1,1E0,1.6E1,2E0,3E1,6.1E1,1.96E2,7E1,6.6E1,5E0,1.66E2,1E1,2.4E1,1.5E1,9.6E1,6E0,2.9E1,8E0,6E0,1.7E1,1E0,3E0,5.1E1,1.3E1,1.7E1,1E0,2E0,4E0,1E1,3.5E1,1.3E1,3E0,1E0,1E0],"tree_param":{"num_deleted":"0","num_feature":"255","num_nodes":"61","size_leaf_vector":"1"}},{"base_weights":[1.6620052E3,-2.2243135E4,1.1754363E5,-3.8431906E4,2.374236E4,8.706182E4,2.0331805E5,-5.0829348E4,-1.4380874E4,-1.3097933E4,3.256638E4,5.3703832E4,1.1394736E5,1.7616239E5,3.2212403E5,-7.700087E4,-4.23437E4,-3.1310537E4,2.8908025E3,-2.0643457E4,1.2892208E4,1.3444853E4,4.444772E4,-2.7730115E2,6.751296E4,1.0853045E5,2.8999666E5,1.8588836E5,1.5683905E4,1.8577492E5,4.039335E5,-4.72311E3,-3.24336E3,-2.745583E3,-1.2176876E3,-2.3792717E3,-8.2572064E2,-2.5287682E2,1.3139172E3,-2.2338752E3,-8.683032E2,-1.1853755E2,1.3680304E3,1.0788743E3,-2.0408491E3,3.1694607E3,1.6332312E3,-1.2817634E3,1.0402434E3,2.6810166E3,4.7759263E3,5.405748E3,9.864725E3,1.9251242E4,1.2570205E4,8.993697E3,1.6947389E4,2.880372E3,-1.159371E3,1.36658545E4,8.455938E3,1.9968174E4,3.0936768E4],"categories":[],"categories_nodes":[],"categories_segments":[],"categories_sizes":[],"default_left":[0,0,0,0,0,0,0,0,0,0,0,0,0,0,0,0,0,0,0,0,0,0,0,0,0,0,0,0,0,0,0,0,0,0,0,0,0,0,0,0,0,0,0,0,0,0,0,0,0,0,0,0,0,0,0,0,0,0,0,0,0,0,0],"id":1,"left_children":[1,3,5,7,9,11,13,15,17,19,21,23,25,27,29,31,33,35,37,39,41,43,45,47,49,51,53,55,57,59,61,-1,-1,-1,-1,-1,-1,-1,-1,-1,-1,-1,-1,-1,-1,-1,-1,-1,-1,-1,-1,-1,-1,-1,-1,-1,-1,-1,-1,-1,-1,-1,-1],"loss_changes":[2.6565898E12,5.918366E11,4.287879E11,1.7532466E11,6.7291455E10,1.0851851E11,1.387287E11,8.616791E10,5.848074E10,7.8443704E9,3.7940625E10,4.025336E10,6.3893996E10,5.4628385E10,8.9237225E10,1.543648E10,4.5451313E10,1.97985E10,1.5634748E10,2.9975388E9,1.6314099E9,2.0157245E10,2.0140507E10,4.8849674E9,1.5664267E10,4.6336967E10,7.4141696E9,8.91574E10,2.7107133E9,6.0114043E9,3.1974031E10,0E0,0E0,0E0,0E0,0E0,0E0,0E0,0E0,0E0,0E0,0E0,0E0,0E0,0E0,0E0,0E0,0E0,0E0,0E0,0E0,0E0,0E0,0E0,0E0,0E0,0E0,0E0,0E0,0E0,0E0,0E0,0E0],"parents":[2147483647,0,0,1,1,2,2,3,3,4,4,5,5,6,6,7,7,8,8,9,9,10,10,11,11,12,12,13,13,14,14,15,15,16,16,17,17,18,18,19,19,20,20,21,21,22,22,23,23,24,24,25,25,26,26,27,27,28,28,29,29,30,30],"right_children":[2,4,6,8,10,12,14,16,18,20,22,24,26,28,30,32,34,36,38,40,42,44,46,48,50,52,54,56,58,60,62,-1,-1,-1,-1,-1,-1,-1,-1,-1,-1,-1,-1,-1,-1,-1,-1,-1,-1,-1,-1,-1,-1,-1,-1,-1,-1,-1,-1,-1,-1,-1,-1],"split_conditions":[1.3747946E0,6.5147924E-1,2.09811E0,3.184746E-1,-6.3715935E-1,8.9841586E-1,2.605522E0,-8.309777E-1,7.897405E-1,9.744518E-2,1.3577713E-1,-4.3116683E-1,5.8830056E0,1.6557775E0,8.198983E-1,1.2806852E0,7.897405E-1,-9.792432E-4,6.918608E-1,2.003188E-1,2.2935243E-1,2.386891E0,1.0054946E0,5.181334E-1,8.0054086E-1,1.7501979E0,-2.777089E-1,2.4695566E0,1.9154994E0,2.705932E-1,1.8000674E0,-4.72311E3,-3.24336E3,-2.745583E3,-1.2176876E3,-2.3792717E3,-8.2572064E2,-2.5287682E2,1.3139172E3,-2.2338752E3,-8.683032E2,-1.1853755E2,1.3680304E3,1.0788743E3,-2.0408491E3,3.1694607E3,1.6332312E3,-1.2817634E3,1.0402434E3,2.6810166E3,4.7759263E3,5.405748E3,9.864725E3,1.9251242E4,1.2570205E4,8.993697E3,1.6947389E4,2.880372E3,-1.159371E3,1.36658545E4,8.455938E3,1.9968174E4,3.0936768E4],"split_indices":[2,2,2,250,10,25,17,10,17,0,25,11,62,0,10,3,17,10,11,5,25,55,128,54,11,11,0,11,0,0,0,0,0,0,0,0,0,0,0,0,0,0,0,0,0,0,0,0,0,0,0,0,0,0,0,0,0,0,0,0,0,0,0],"split_type":[0,0,0,0,0,0,0,0,0,0,0,0,0,0,0,0,0,0,0,0,0,0,0,0,0,0,0,0,0,0,0,0,0,0,0,0,0,0,0,0,0,0,0,0,0,0,0,0,0,0,0,0,0,0,0,0,0,0,0,0,0,0,0],"sum_hessian":[9.59E2,7.95E2,1.64E2,5.88E2,2.07E2,1.21E2,4.3E1,3.88E2,2E2,4E1,1.67E2,5.4E1,6.7E1,3.5E1,8E0,9.5E1,2.93E2,1.01E2,9.9E1,3.1E1,9E0,6.4E1,1.03E2,1.1E1,4.3E1,6.5E1,2E0,3.3E1,2E0,3E0,5E0,6.3E1,3.2E1,2.12E2,8.1E1,5.8E1,4.3E1,7.3E1,2.6E1,6E0,2.5E1,4E0,5E0,5.7E1,7E0,5.4E1,4.9E1,5E0,6E0,2.2E1,2.1E1,5.7E1,8E0,1E0,1E0,2.8E1,5E0,1E0,1E0,1E0,2E0,4E0,1E0],"tree_param":{"num_deleted":"0","num_feature":"255","num_nodes":"63","size_leaf_vector":"1"}},{"base_weights":[-1.5791942E3,-3.4351617E4,5.563209E4,-4.7360668E4,-8.775565E3,2.5090553E4,1.19688234E5,-5.938629E4,-3.2328643E4,-1.592333E4,5.1005742E4,1.0862128E4,6.438811E4,9.8598E4,2.0221523E5,-8.36797E4,-5.2971734E4,-4.3747598E4,-1.8681596E4,-2.507295E4,1.5011093E4,2.6461047E4,1.1645826E5,-4.0440352E3,2.7976611E4,5.4717125E4,1.3087611E5,7.4056234E4,1.3541066E5,1.590899E5,3.5746638E5,-5.7771465E3,-4.2287017E3,-4.6240527E3,-2.638604E3,-3.1597158E3,-1.7813728E3,-2.682317E3,-7.681973E2,-2.0268999E3,-3.1430762E2,3.827022E2,5.0119883E3,-1.3242178E3,1.8483632E3,8.22016E3,2.728195E3,-1.4255392E3,6.4743494E2,2.7472336E2,2.44659E3,4.38362E3,2.3299587E3,4.329135E3,1.0031953E4,3.851069E3,1.5301292E4,4.8979233E3,8.695038E3,1.2877039E4,5.409669E3,1.5319195E4,2.6052365E4],"categories":[],"categories_nodes":[],"categories_segments":[],"categories_sizes":[],"default_left":[0,0,0,0,0,0,0,0,0,0,0,0,0,0,0,0,0,0,0,0,0,0,0,0,0,0,0,0,0,0,0,0,0,0,0,0,0,0,0,0,0,0,0,0,0,0,0,0,0,0,0,0,0,0,0,0,0,0,0,0,0,0,0],"id":2,"left_children":[1,3,5,7,9,11,13,15,17,19,21,23,25,27,29,31,33,35,37,39,41,43,45,47,49,51,53,55,57,59,61,-1,-1,-1,-1,-1,-1,-1,-1,-1,-1,-1,-1,-1,-1,-1,-1,-1,-1,-1,-1,-1,-1,-1,-1,-1,-1,-1,-1,-1,-1,-1,-1],"loss_changes":[1.8018292E12,2.0329195E11,6.847307E11,7.321171E10,8.802437E10,1.3251676E11,1.96678E11,3.5062022E10,2.8050293E10,5.2079022E10,3.5343266E10,4.4389368E10,4.0509276E10,8.131032E10,1.5399086E11,6.7111485E9,2.7191706E10,1.5301755E10,1.1592616E10,3.260634E10,2.5764899E10,5.8515323E9,1.3359817E10,3.2327283E10,3.0914642E10,1.6965845E10,2.1608022E10,4.274802E10,3.831798E10,8.233016E10,4.5924286E10,0E0,0E0,0E0,0E0,0E0,0E0,0E0,0E0,0E0,0E0,0E0,0E0,0E0,0E0,0E0,0E0,0E0,0E0,0E0,0E0,0E0,0E0,0E0,0E0,0E0,0E0,0E0,0E0,0E0,0E0,0E0,0E0],"parents":[2147483647,0,0,1,1,2,2,3,3,4,4,5,5,6,6,7,7,8,8,9,9,10,10,11,11,12,12,13,13,14,14,15,15,16,16,17,17,18,18,19,19,20,20,21,21,22,22,23,23,24,24,25,25,26,26,27,27,28,28,29,29,30,30],"right_children":[2,4,6,8,10,12,14,16,18,20,22,24,26,28,30,32,34,36,38,40,42,44,46,48,50,52,54,56,58,60,62,-1,-1,-1,-1,-1,-1,-1,-1,-1,-1,-1,-1,-1,-1,-1,-1,-1,-1,-1,-1,-1,-1,-1,-1,-1,-1,-1,-1,-1,-1,-1,-1],"split_conditions":[1.0523022E0,7.897405E-1,9.1245216E-1,-5.0989246E-1,2.1522164E0,7.9937637E-1,1.7889899E0,-1.2538161E0,6.004949E-1,1.9705185E0,1.0341176E-1,1.9705185E0,2.7942083E0,8.849468E-1,1.3900228E0,3.0599502E-1,-1.1319661E0,1.1078101E0,5.181334E-1,2.1564122E-1,2.3616315E-1,5.181334E-1,3.5325505E-2,6.004949E-1,-4.8438492E-1,1.3129663E0,1.840192E-1,8.047402E0,1.1078101E0,1.6377911E-1,1.3671974E0,-5.7771465E3,-4.2287017E3,-4.6240527E3,-2.638604E3,-3.1597158E3,-1.7813728E3,-2.682317E3,-7.681973E2,-2.0268999E3,-3.1430762E2,3.827022E2,5.0119883E3,-1.3242178E3,1.8483632E3,8.22016E3,2.728195E3,-1.4255392E3,6.4743494E2,2.7472336E2,2.44659E3,4.38362E3,2.3299587E3,4.329135E3,1.0031953E4,3.851069E3,1.5301292E4,4.8979233E3,8.695038E3,1.2877039E4,5.409669E3,1.5319195E4,2.6052365E4],"split_indices":[239,17,25,25,22,10,10,25,22,40,5,40,239,6,19,199,10,15,54,10,10,54,27,22,10,35,0,13,15,19,0,0,0,0,0,0,0,0,0,0,0,0,0,0,0,0,0,0,0,0,0,0,0,0,0,0,0,0,0,0,0,0,0],"split_type":[0,0,0,0,0,0,0,0,0,0,0,0,0,0,0,0,0,0,0,0,0,0,0,0,0,0,0,0,0,0,0,0,0,0,0,0,0,0,0,0,0,0,0,0,0,0,0,0,0,0,0,0,0,0,0,0,0,0,0,0,0,0,0],"sum_hessian":[9.61E2,6.11E2,3.5E2,4.05E2,2.06E2,2.37E2,1.13E2,2.25E2,1.8E2,1.84E2,2.2E1,1.74E2,6.3E1,9E1,2.3E1,4.7E1,1.78E2,9.8E1,8.2E1,1.42E2,4.2E1,1.6E1,6E0,9.3E1,8.1E1,5.5E1,8E0,5.4E1,3.6E1,1.8E1,5E0,1.1E1,3.6E1,2.4E1,1.54E2,4.4E1,5.4E1,1.1E1,7.1E1,8.8E1,5.4E1,3.8E1,4E0,2E0,1.4E1,4E0,2E0,3.9E1,5.4E1,3.4E1,4.7E1,1.8E1,3.7E1,4E0,4E0,5.3E1,1E0,1.2E1,2.4E1,8E0,1E1,3E0,2E0],"tree_param":{"num_deleted":"0","num_feature":"255","num_nodes":"63","size_leaf_vector":"1"}},{"base_weights":[-3.622744E2,-1.8826395E4,1.02202125E5,-4.2828305E4,7.9955835E3,6.890788E4,1.4369188E5,-5.582727E4,-2.0614887E4,-9.883989E3,3.0635988E4,4.4682156E4,1.0600352E5,1.0365657E5,1.7398884E5,-8.712771E4,-5.1011816E4,-3.1368424E4,-4.76448E2,-2.0393553E4,1.2680661E4,1.6906916E4,6.0684527E4,3.9387156E4,1.0425091E5,8.947411E4,1.4824536E5,8.5265766E4,1.3207872E5,1.8744816E5,2.1449988E4,-6.0089873E3,-4.3707095E3,-3.9078557E3,-2.5631655E3,-3.7467358E3,-1.5733274E3,-1.4564261E2,2.0452308E3,-1.9356353E3,-4.0686743E2,-9.391075E1,1.9712957E3,6.186793E2,3.8764016E3,2.8193225E3,5.8235166E3,3.6366895E2,2.549593E3,3.630772E3,6.4160713E3,3.8026685E3,6.9834146E3,9.923691E3,6.7013677E3,5.532937E3,3.110965E3,6.615874E3,7.772068E3,9.255719E3,1.4252077E4,6.7187495E3,-1.5940881E3],"categories":[],"categories_nodes":[],"categories_segments":[],"categories_sizes":[],"default_left":[0,0,0,0,0,0,0,0,0,0,0,0,0,0,0,0,0,0,0,0,0,0,0,0,0,0,0,0,0,0,0,0,0,0,0,0,0,0,0,0,0,0,0,0,0,0,0,0,0,0,0,0,0,0,0,0,0,0,0,0,0,0,0],"id":3,"left_children":[1,3,5,7,9,11,13,15,17,19,21,23,25,27,29,31,33,35,37,39,41,43,45,47,49,51,53,55,57,59,61,-1,-1,-1,-1,-1,-1,-1,-1,-1,-1,-1,-1,-1,-1,-1,-1,-1,-1,-1,-1,-1,-1,-1,-1,-1,-1,-1,-1,-1,-1,-1,-1],"loss_changes":[1.8123297E12,5.221046E11,2.0167983E11,1.2358563E11,1.5503871E11,7.279221E10,7.884164E10,4.0695955E10,3.421639E10,5.074895E10,6.9719015E10,1.5455404E10,2.234345E10,1.4635762E10,7.596356E10,6.018466E9,2.031308E10,1.0238132E10,4.5227494E9,2.8205887E10,2.2753423E10,3.510413E10,2.2401712E10,1.0441318E10,1.9329065E9,1.7535468E10,7.6653527E9,7.565525E9,1.2111544E9,4.6099464E10,1.53043E10,0E0,0E0,0E0,0E0,0E0,0E0,0E0,0E0,0E0,0E0,0E0,0E0,0E0,0E0,0E0,0E0,0E0,0E0,0E0,0E0,0E0,0E0,0E0,0E0,0E0,0E0,0E0,0E0,0E0,0E0,0E0,0E0],"parents":[2147483647,0,0,1,1,2,2,3,3,4,4,5,5,6,6,7,7,8,8,9,9,10,10,11,11,12,12,13,13,14,14,15,15,16,16,17,17,18,18,19,19,20,20,21,21,22,22,23,23,24,24,25,25,26,26,27,27,28,28,29,29,30,30],"right_children":[2,4,6,8,10,12,14,16,18,20,22,24,26,28,30,32,34,36,38,40,42,44,46,48,50,52,54,56,58,60,62,-1,-1,-1,-1,-1,-1,-1,-1,-1,-1,-1,-1,-1,-1,-1,-1,-1,-1,-1,-1,-1,-1,-1,-1,-1,-1,-1,-1,-1,-1,-1,-1],"split_conditions":[1.3747946E0,-1.9696102E-1,8.7099934E-1,-2.086314E-1,6.5147924E-1,9.2854005E-1,7.5913894E-1,2.6381257E-1,2.673629E-1,1.695929E-1,7.986598E-1,2.7942083E0,3.3116784E0,2.9823104E-1,4.7089915E0,-1.3562976E0,-7.951515E-1,1.1788424E-1,1.7743534E0,2.1003632E-1,5.1501256E-1,1.4088644E0,1.0425897E0,-5.128189E-1,1.3620547E0,2.09811E0,1.6377911E-1,7.3330754E-1,6.8468876E-2,1.3960553E0,3.8602522E-1,-6.0089873E3,-4.3707095E3,-3.9078557E3,-2.5631655E3,-3.7467358E3,-1.5733274E3,-1.4564261E2,2.0452308E3,-1.9356353E3,-4.0686743E2,-9.391075E1,1.9712957E3,6.186793E2,3.8764016E3,2.8193225E3,5.8235166E3,3.6366895E2,2.549593E3,3.630772E3,6.4160713E3,3.8026685E3,6.9834146E3,9.923691E3,6.7013677E3,5.532937E3,3.110965E3,6.615874E3,7.772068E3,9.255719E3,1.4252077E4,6.7187495E3,-1.5940881E3],"split_indices":[2,14,14,11,2,7,11,247,23,1,14,239,230,23,65,14,2,242,9,23,14,7,7,1,11,2,19,5,1,0,0,0,0,0,0,0,0,0,0,0,0,0,0,0,0,0,0,0,0,0,0,0,0,0,0,0,0,0,0,0,0,0,0],"split_type":[0,0,0,0,0,0,0,0,0,0,0,0,0,0,0,0,0,0,0,0,0,0,0,0,0,0,0,0,0,0,0,0,0,0,0,0,0,0,0,0,0,0,0,0,0,0,0,0,0,0,0,0,0,0,0,0,0,0,0,0,0,0,0],"sum_hessian":[9.57E2,8.11E2,1.46E2,4.28E2,3.83E2,8.1E1,6.5E1,2.7E2,1.58E2,2.14E2,1.69E2,4.9E1,3.2E1,2.8E1,3.7E1,3.6E1,2.34E2,1.03E2,5.5E1,1.46E2,6.8E1,1.16E2,5.3E1,4.5E1,4E0,2.3E1,9E0,1.7E1,1.1E1,3.4E1,3E0,9E0,2.7E1,4.1E1,1.93E2,7E0,9.6E1,5.2E1,3E0,6.8E1,7.8E1,4.2E1,2.6E1,1.05E2,1.1E1,4.4E1,9E0,8E0,3.7E1,1E0,3E0,1.5E1,8E0,4E0,5E0,1.1E1,6E0,5E0,6E0,2.7E1,7E0,1E0,2E0],"tree_param":{"num_deleted":"0","num_feature":"255","num_nodes":"63","size_leaf_vector":"1"}},{"base_weights":[-6.286866E2,-1.4900054E4,1.0277825E5,-4.021192E4,1.2572584E4,8.641464E4,2.4732353E5,-4.9141367E4,-1.7096184E4,-1.0650928E4,3.0390623E4,6.217793E4,1.4002917E5,3.753816E5,1.8329448E5,-7.5012055E4,-4.414034E4,-2.820479E4,-2.2148455E3,-2.392349E4,8.439744E3,5.7157427E3,4.5469715E4,-3.1807719E4,7.21461E4,1.0849721E5,1.7786753E5,6.357848E3,4.618817E5,2.1392708E5,-1.7081515E3,-5.45169E3,-3.8726172E3,-2.8149724E3,-1.94799E3,-3.779968E3,-1.3413838E3,-1.3247587E3,2.695353E2,-1.6138557E3,2.340557E3,3.3323907E2,9.809309E3,-3.3047104E2,1.4978466E3,2.427554E3,1.2097317E4,-7.885561E2,-4.1365884E3,3.1652454E3,6.0731504E3,2.07844E3,6.7275776E3,8.827215E3,1.2320426E4,2.0654E4,2.7684846E4,9.901198E3,1.6327033E4],"categories":[],"categories_nodes":[],"categories_segments":[],"categories_sizes":[],"default_left":[0,0,0,0,0,0,0,0,0,0,0,0,0,0,0,0,0,0,0,0,0,0,0,0,0,0,0,0,0,0,0,0,0,0,0,0,0,0,0,0,0,0,0,0,0,0,0,0,0,0,0,0,0,0,0,0,0,0,0],"id":4,"left_children":[1,3,5,7,9,11,13,15,17,19,21,23,25,27,29,31,33,35,37,39,41,43,45,47,49,51,53,-1,55,57,-1,-1,-1,-1,-1,-1,-1,-1,-1,-1,-1,-1,-1,-1,-1,-1,-1,-1,-1,-1,-1,-1,-1,-1,-1,-1,-1,-1,-1],"loss_changes":[1.435913E12,5.945531E11,2.791034E11,9.185277E10,1.6965694E11,1.3774068E11,9.8393194E10,4.1531015E10,2.049855E10,4.5102023E10,8.6321365E10,6.839114E10,3.9372915E10,8.978714E10,5.254791E10,5.6072274E9,1.6647586E10,1.0851451E10,8.284579E9,3.8392152E10,2.9422002E10,2.229786E10,3.0846878E10,5.319702E9,3.677366E10,1.7951097E10,1.189095E10,0E0,1.0947854E10,1.9595985E10,0E0,0E0,0E0,0E0,0E0,0E0,0E0,0E0,0E0,0E0,0E0,0E0,0E0,0E0,0E0,0E0,0E0,0E0,0E0,0E0,0E0,0E0,0E0,0E0,0E0,0E0,0E0,0E0,0E0],"parents":[2147483647,0,0,1,1,2,2,3,3,4,4,5,5,6,6,7,7,8,8,9,9,10,10,11,11,12,12,13,13,14,14,15,15,16,16,17,17,18,18,19,19,20,20,21,21,22,22,23,23,24,24,25,25,26,26,28,28,29,29],"right_children":[2,4,6,8,10,12,14,16,18,20,22,24,26,28,30,32,34,36,38,40,42,44,46,48,50,52,54,-1,56,58,-1,-1,-1,-1,-1,-1,-1,-1,-1,-1,-1,-1,-1,-1,-1,-1,-1,-1,-1,-1,-1,-1,-1,-1,-1,-1,-1,-1,-1],"split_conditions":[1.6503069E0,-1.8363531E-1,2.1521711E0,-5.07865E-2,7.3599434E-1,1.3801681E0,6.2276214E-1,2.6561806E-1,7.3599434E-1,3.184746E-1,-4.156411E-1,7.3599434E-1,7.548753E-1,9.631853E-1,1.7786617E0,-1.4629034E0,-3.3209938E-1,1.1788424E-1,3.184746E-1,1.5391885E0,2.4926596E0,4.3886566E-1,3.1734436E0,4.830459E0,1.5791656E0,-7.33674E-1,8.959194E-1,6.357848E3,1.7501979E0,3.3739958E0,-1.7081515E3,-5.45169E3,-3.8726172E3,-2.8149724E3,-1.94799E3,-3.779968E3,-1.3413838E3,-1.3247587E3,2.695353E2,-1.6138557E3,2.340557E3,3.3323907E2,9.809309E3,-3.3047104E2,1.4978466E3,2.427554E3,1.2097317E4,-7.885561E2,-4.1365884E3,3.1652454E3,6.0731504E3,2.07844E3,6.7275776E3,8.827215E3,1.2320426E4,2.0654E4,2.7684846E4,9.901198E3,1.6327033E4],"split_indices":[24,14,14,11,248,11,75,252,248,250,11,248,14,0,11,14,25,242,250,14,0,14,9,41,14,244,27,0,11,21,0,0,0,0,0,0,0,0,0,0,0,0,0,0,0,0,0,0,0,0,0,0,0,0,0,0,0,0,0],"split_type":[0,0,0,0,0,0,0,0,0,0,0,0,0,0,0,0,0,0,0,0,0,0,0,0,0,0,0,0,0,0,0,0,0,0,0,0,0,0,0,0,0,0,0,0,0,0,0,0,0,0,0,0,0,0,0,0,0,0,0],"sum_hessian":[9.73E2,8.55E2,1.18E2,4.45E2,4.1E2,1.06E2,1.2E1,3.21E2,1.24E2,1.78E2,2.32E2,7.3E1,3.3E1,4E0,8E0,5.2E1,2.69E2,7.1E1,5.3E1,1.05E2,7.3E1,8.8E1,1.44E2,7E0,6.6E1,1.8E1,1.5E1,1E0,3E0,7E0,1E0,8E0,4.4E1,1.47E2,1.22E2,6E0,6.5E1,1.3E1,4E1,9.7E1,8E0,7.2E1,1E0,5.7E1,3.1E1,1.43E2,1E0,5E0,2E0,4.8E1,1.8E1,3E0,1.5E1,1.1E1,4E0,1E0,2E0,5E0,2E0],"tree_param":{"num_deleted":"0","num_feature":"255","num_nodes":"59","size_leaf_vector":"1"}},{"base_weights":[1.2815956E3,-1.7686016E4,9.530007E4,-3.9652082E4,6.162855E3,7.176801E4,1.720889E5,-5.262792E4,-2.6298305E4,-9.065022E3,2.7124686E4,4.9808367E4,1.0537969E5,1.22171766E5,2.2755239E5,-7.3509664E4,-4.7621188E4,-4.030725E4,-1.5850954E4,-3.3881348E4,-1.3719751E2,1.4377084E4,6.4745656E4,3.1754932E4,8.383216E4,9.27089E4,1.4046803E5,8.81974E4,1.4046566E5,2.4266873E5,-1.6144331E3,-4.5484463E3,-3.1398948E3,-3.4220068E3,-2.314938E3,-4.125447E3,-2.0200673E3,-1.0866672E3,2.6102646E2,-2.1019102E3,1.4823887E3,2.4256866E2,-1.8082188E3,3.5953107E2,2.2832988E3,2.821008E3,6.152373E3,2.6030072E2,2.2228699E3,3.5480615E3,7.4532856E3,4.6508135E3,7.787702E3,6.81313E3,1.0685729E4,2.2379788E3,5.272466E3,6.9034883E3,8.643728E3,1.1330052E4,1.8075705E4],"categories":[],"categories_nodes":[],"categories_segments":[],"categories_sizes":[],"default_left":[0,0,0,0,0,0,0,0,0,0,0,0,0,0,0,0,0,0,0,0,0,0,0,0,0,0,0,0,0,0,0,0,0,0,0,0,0,0,0,0,0,0,0,0,0,0,0,0,0,0,0,0,0,0,0,0,0,0,0,0,0],"id":5,"left_children":[1,3,5,7,9,11,13,15,17,19,21,23,25,27,29,31,33,35,37,39,41,43,45,47,49,51,53,55,57,59,-1,-1,-1,-1,-1,-1,-1,-1,-1,-1,-1,-1,-1,-1,-1,-1,-1,-1,-1,-1,-1,-1,-1,-1,-1,-1,-1,-1,-1,-1,-1],"loss_changes":[1.72089E12,4.206643E11,2.9273398E11,7.2429535E10,1.2289362E11,9.15245E10,1.0520586E11,2.2164472E10,3.014941E10,4.9406943E10,7.76915E10,4.60685E10,2.1785248E10,1.2430475E10,6.992219E10,6.2695014E9,1.36907E10,1.0709385E10,9.618231E9,1.5914217E10,2.4535562E10,2.5788004E10,2.5897566E10,1.1594252E10,2.5916473E10,1.4074511E10,1.1497112E10,2.6219807E9,3.2503398E9,5.335266E10,0E0,0E0,0E0,0E0,0E0,0E0,0E0,0E0,0E0,0E0,0E0,0E0,0E0,0E0,0E0,0E0,0E0,0E0,0E0,0E0,0E0,0E0,0E0,0E0,0E0,0E0,0E0,0E0,0E0,0E0,0E0],"parents":[2147483647,0,0,1,1,2,2,3,3,4,4,5,5,6,6,7,7,8,8,9,9,10,10,11,11,12,12,13,13,14,14,15,15,16,16,17,17,18,18,19,19,20,20,21,21,22,22,23,23,24,24,25,25,26,26,27,27,28,28,29,29],"right_children":[2,4,6,8,10,12,14,16,18,20,22,24,26,28,30,32,34,36,38,40,42,44,46,48,50,52,54,56,58,60,-1,-1,-1,-1,-1,-1,-1,-1,-1,-1,-1,-1,-1,-1,-1,-1,-1,-1,-1,-1,-1,-1,-1,-1,-1,-1,-1,-1,-1,-1,-1],"split_conditions":[1.3747946E0,-1.9315366E-1,2.09811E0,8.235053E-1,6.5147924E-1,8.7099934E-1,1.2993257E0,2.8974476E-1,3.1172463E-1,3.1172463E-1,9.0526545E-1,7.706252E-1,1.4746623E0,1.6503069E0,4.7089915E0,-7.909069E-1,-7.951515E-1,-4.65915E-1,4.866845E-1,4.63266E0,4.3285794E0,4.5260215E-1,1.0425897E0,-2.7278712E-1,3.3116784E0,1.8757064E0,1.951138E0,-5.0986546E-1,1.8277775E0,1.9571799E0,-1.6144331E3,-4.5484463E3,-3.1398948E3,-3.4220068E3,-2.314938E3,-4.125447E3,-2.0200673E3,-1.0866672E3,2.6102646E2,-2.1019102E3,1.4823887E3,2.4256866E2,-1.8082188E3,3.5953107E2,2.2832988E3,2.821008E3,6.152373E3,2.6030072E2,2.2228699E3,3.5480615E3,7.4532856E3,4.6508135E3,7.787702E3,6.81313E3,1.0685729E4,2.2379788E3,5.272466E3,6.9034883E3,8.643728E3,1.1330052E4,1.8075705E4],"split_indices":[2,14,2,208,2,14,14,253,24,24,14,7,7,24,65,14,2,1,25,77,20,7,7,1,230,6,25,6,7,7,0,0,0,0,0,0,0,0,0,0,0,0,0,0,0,0,0,0,0,0,0,0,0,0,0,0,0,0,0,0,0],"split_type":[0,0,0,0,0,0,0,0,0,0,0,0,0,0,0,0,0,0,0,0,0,0,0,0,0,0,0,0,0,0,0,0,0,0,0,0,0,0,0,0,0,0,0,0,0,0,0,0,0,0,0,0,0,0,0,0,0,0,0,0,0],"sum_hessian":[9.65E2,8.03E2,1.62E2,4.18E2,3.85E2,1.24E2,3.8E1,2.12E2,2.06E2,2.23E2,1.62E2,7.5E1,4.9E1,2E1,1.8E1,4.1E1,1.71E2,8.8E1,1.18E2,5.9E1,1.64E2,1.21E2,4.1E1,4.9E1,2.6E1,3.6E1,1.3E1,7E0,1.3E1,1.7E1,1E0,2.6E1,1.5E1,4.6E1,1.25E2,8E0,8E1,9.9E1,1.9E1,5.5E1,4E0,1.44E2,2E1,9.4E1,2.7E1,3.2E1,9E0,1.2E1,3.7E1,1.9E1,7E0,3.1E1,5E0,1E1,3E0,1E0,6E0,7E0,6E0,1.2E1,5E0],"tree_param":{"num_deleted":"0","num_feature":"255","num_nodes":"61","size_leaf_vector":"1"}},{"base_weights":[-1.4146937E3,-1.3657718E4,9.137454E4,-3.363461E4,1.0172586E4,5.1527188E4,1.4237914E5,-4.4957926E4,-1.5226313E4,-6.7567065E3,2.3288975E4,3.2916176E4,1.2453962E5,1.1668315E5,1.9225961E5,-5.7464887E4,-3.713234E4,-1.8700219E4,5.9028387E4,-3.9212727E4,9.486799E2,1.3324311E4,5.2134055E4,-2.6320096E4,5.3181215E4,1.3841E5,4.8252496E4,1.0583569E5,1.9532722E5,1.56196E5,2.3283119E5,-3.3072122E3,-1.5780485E3,-2.1873645E3,-5.082188E2,-1.6691271E3,-4.0503244E2,1.0314802E3,3.974312E3,-1.895709E3,-4.005276E3,-1.2570237E3,2.982E2,3.9549945E2,2.3727979E3,4.15619E2,3.5122722E3,-2.2956648E3,3.2397834E3,1.2992122E3,3.2832854E3,6.9994624E3,9.17904E3,4.0153162E3,1.2794495E3,6.8296445E3,4.3575195E3,8.780679E3,1.6524629E4,9.018568E3,4.9789727E3,1.7873104E4,9.715065E3],"categories":[],"categories_nodes":[],"categories_segments":[],"categories_sizes":[],"default_left":[0,0,0,0,0,0,0,0,0,0,0,0,0,0,0,0,0,0,0,0,0,0,0,0,0,0,0,0,0,0,0,0,0,0,0,0,0,0,0,0,0,0,0,0,0,0,0,0,0,0,0,0,0,0,0,0,0,0,0,0,0,0,0],"id":6,"left_children":[1,3,5,7,9,11,13,15,17,19,21,23,25,27,29,31,33,35,37,39,41,43,45,47,49,51,53,55,57,59,61,-1,-1,-1,-1,-1,-1,-1,-1,-1,-1,-1,-1,-1,-1,-1,-1,-1,-1,-1,-1,-1,-1,-1,-1,-1,-1,-1,-1,-1,-1,-1,-1],"loss_changes":[1.1110284E12,4.113119E11,2.3169342E11,9.796823E10,8.748816E10,8.696547E10,6.408641E10,2.8481421E10,4.617371E10,4.3014824E10,6.380979E10,6.1221704E10,1.3755711E10,2.8151906E10,2.487373E10,9.046065E9,1.364702E10,2.2686515E10,4.31547E9,5.196808E9,1.4879405E10,3.0195698E10,3.0179377E10,1.7226258E10,7.4678845E9,3.443245E9,1.2432717E9,1.4281703E10,1.4941438E10,4.818698E9,4.145519E10,0E0,0E0,0E0,0E0,0E0,0E0,0E0,0E0,0E0,0E0,0E0,0E0,0E0,0E0,0E0,0E0,0E0,0E0,0E0,0E0,0E0,0E0,0E0,0E0,0E0,0E0,0E0,0E0,0E0,0E0,0E0,0E0],"parents":[2147483647,0,0,1,1,2,2,3,3,4,4,5,5,6,6,7,7,8,8,9,9,10,10,11,11,12,12,13,13,14,14,15,15,16,16,17,17,18,18,19,19,20,20,21,21,22,22,23,23,24,24,25,25,26,26,27,27,28,28,29,29,30,30],"right_children":[2,4,6,8,10,12,14,16,18,20,22,24,26,28,30,32,34,36,38,40,42,44,46,48,50,52,54,56,58,60,62,-1,-1,-1,-1,-1,-1,-1,-1,-1,-1,-1,-1,-1,-1,-1,-1,-1,-1,-1,-1,-1,-1,-1,-1,-1,-1,-1,-1,-1,-1,-1,-1],"split_conditions":[1.6503069E0,5.8316785E-1,1.7244883E0,9.6482195E-2,6.488901E-1,1.5048634E0,1.9308608E0,-7.098267E-1,1.569754E0,-3.5081446E-1,1.0096908E0,5.8316785E-1,9.9089134E-1,7.5762787E0,2.220999E0,4.2586055E-1,7.791566E-1,3.1172463E-1,-9.4911844E-1,1.20415945E1,1.1209677E0,1.2626814E0,1.1647115E0,1.5353801E0,6.004949E-1,2.1905404E-1,2.417352E-1,1.3076194E-1,7.3232126E-1,1.6557775E0,1.6704121E0,-3.3072122E3,-1.5780485E3,-2.1873645E3,-5.082188E2,-1.6691271E3,-4.0503244E2,1.0314802E3,3.974312E3,-1.895709E3,-4.005276E3,-1.2570237E3,2.982E2,3.9549945E2,2.3727979E3,4.15619E2,3.5122722E3,-2.2956648E3,3.2397834E3,1.2992122E3,3.2832854E3,6.9994624E3,9.17904E3,4.0153162E3,1.2794495E3,6.8296445E3,4.3575195E3,8.780679E3,1.6524629E4,9.018568E3,4.9789727E3,1.7873104E4,9.715065E3],"split_indices":[24,241,241,249,249,6,7,7,12,25,7,241,33,101,243,25,12,24,9,49,185,12,244,12,22,9,0,9,0,0,25,0,0,0,0,0,0,0,0,0,0,0,0,0,0,0,0,0,0,0,0,0,0,0,0,0,0,0,0,0,0,0,0],"split_type":[0,0,0,0,0,0,0,0,0,0,0,0,0,0,0,0,0,0,0,0,0,0,0,0,0,0,0,0,0,0,0,0,0,0,0,0,0,0,0,0,0,0,0,0,0,0,0,0,0,0,0,0,0,0,0,0,0,0,0,0,0,0,0],"sum_hessian":[9.78E2,8.64E2,1.14E2,4.7E2,3.94E2,6.4E1,5E1,2.91E2,1.79E2,1.72E2,2.22E2,5.1E1,1.3E1,3.3E1,1.7E1,1.12E2,1.79E2,1.71E2,8E0,3.3E1,1.39E2,1.65E2,5.7E1,1.3E1,3.8E1,1.1E1,2E0,2.9E1,4E0,9E0,8E0,1.02E2,1E1,1.63E2,1.6E1,8.4E1,8.7E1,2E0,6E0,2.9E1,4E0,2.2E1,1.17E2,1.37E2,2.8E1,1.2E1,4.5E1,1.1E1,2E0,7E0,3.1E1,8E0,3E0,1E0,1E0,1.7E1,1.2E1,3E0,1E0,8E0,1E0,3E0,5E0],"tree_param":{"num_deleted":"0","num_feature":"255","num_nodes":"63","size_leaf_vector":"1"}},{"base_weights":[1.4202665E3,-1.5237272E4,9.137098E4,-3.4718996E4,7.073305E3,6.962678E4,1.4844947E5,-4.530167E4,-1.7995754E4,-9.465727E3,2.2140275E4,5.413967E4,1.1918554E5,1.1051568E5,1.8638327E5,-6.3112453E4,-3.8859477E4,-2.4499938E4,4.192587E0,-1.0459239E4,8.910765E3,1.3379065E4,4.4952484E4,3.287381E4,7.243821E4,1.0307484E5,2.0376667E5,8.520518E4,1.3122427E5,3.523756E4,2.0317723E5,-4.449301E3,-3.2294756E3,-2.5159138E3,-1.6249308E3,-1.3834779E3,3.2913167E3,-1.257426E3,2.8769427E2,-1.4356498E3,-1.1625449E2,3.1349973E2,1.6952916E3,2.3435298E3,8.851794E3,-5.8001025E2,2.3598103E3,9.778816E3,3.836135E3,4.3814487E3,6.610552E3,9.538435E3,1.6103492E4,3.842164E3,6.3400693E3,7.7262803E3,5.795288E3,5.409048E3,-1.5424166E3,5.9616875E3,1.2184493E4],"categories":[],"categories_nodes":[],"categories_segments":[],"categories_sizes":[],"default_left":[0,0,0,0,0,0,0,0,0,0,0,0,0,0,0,0,0,0,0,0,0,0,0,0,0,0,0,0,0,0,0,0,0,0,0,0,0,0,0,0,0,0,0,0,0,0,0,0,0,0,0,0,0,0,0,0,0,0,0,0,0],"id":7,"left_children":[1,3,5,7,9,11,13,15,17,19,21,23,25,27,29,31,33,35,37,39,-1,41,43,45,47,49,51,53,55,57,59,-1,-1,-1,-1,-1,-1,-1,-1,-1,-1,-1,-1,-1,-1,-1,-1,-1,-1,-1,-1,-1,-1,-1,-1,-1,-1,-1,-1,-1,-1],"loss_changes":[1.3904755E12,3.403298E11,1.799633E11,7.397622E10,9.095548E10,8.058978E10,5.7559024E10,2.9373596E10,1.8966143E10,2.97127E10,3.8173753E10,3.1130747E10,3.406653E10,1.0482893E10,5.0766676E10,5.1975127E9,1.2157813E10,7.1989E9,5.1644047E9,2.2664155E10,0E0,1.8532444E10,1.3805879E10,1.6295408E10,1.1459133E10,8.4892877E9,1.07385E10,4.1456067E9,2.7026063E9,8.026547E9,3.216022E10,0E0,0E0,0E0,0E0,0E0,0E0,0E0,0E0,0E0,0E0,0E0,0E0,0E0,0E0,0E0,0E0,0E0,0E0,0E0,0E0,0E0,0E0,0E0,0E0,0E0,0E0,0E0,0E0,0E0,0E0],"parents":[2147483647,0,0,1,1,2,2,3,3,4,4,5,5,6,6,7,7,8,8,9,9,10,10,11,11,12,12,13,13,14,14,15,15,16,16,17,17,18,18,19,19,21,21,22,22,23,23,24,24,25,25,26,26,27,27,28,28,29,29,30,30],"right_children":[2,4,6,8,10,12,14,16,18,20,22,24,26,28,30,32,34,36,38,40,-1,42,44,46,48,50,52,54,56,58,60,-1,-1,-1,-1,-1,-1,-1,-1,-1,-1,-1,-1,-1,-1,-1,-1,-1,-1,-1,-1,-1,-1,-1,-1,-1,-1,-1,-1,-1,-1],"split_conditions":[1.3747946E0,-1.9315366E-1,2.09811E0,-1.127098E-1,7.3599434E-1,1.617239E0,1.2993257E0,-7.951515E-1,2.673629E-1,2.4926596E0,7.986598E-1,7.9937637E-1,3.2486866E0,1.8124247E0,1.6503069E0,-1.2514428E0,-1.5931796E-1,7.674534E-1,2.3616315E-1,-7.1836114E-2,8.910765E3,8.471181E-1,2.44514E0,-4.65915E-1,8.4498066E-1,1.3000696E0,4.2706332E-1,6.178109E-1,1.0786173E0,5.303152E-1,6.789227E-1,-4.449301E3,-3.2294756E3,-2.5159138E3,-1.6249308E3,-1.3834779E3,3.2913167E3,-1.257426E3,2.8769427E2,-1.4356498E3,-1.1625449E2,3.1349973E2,1.6952916E3,2.3435298E3,8.851794E3,-5.8001025E2,2.3598103E3,9.778816E3,3.836135E3,4.3814487E3,6.610552E3,9.538435E3,1.6103492E4,3.842164E3,6.3400693E3,7.7262803E3,5.795288E3,5.409048E3,-1.5424166E3,5.9616875E3,1.2184493E4],"split_indices":[2,14,2,10,248,14,14,2,23,0,14,10,14,7,24,11,7,10,10,2,0,11,12,1,10,6,1,14,0,0,11,0,0,0,0,0,0,0,0,0,0,0,0,0,0,0,0,0,0,0,0,0,0,0,0,0,0,0,0,0,0],"split_type":[0,0,0,0,0,0,0,0,0,0,0,0,0,0,0,0,0,0,0,0,0,0,0,0,0,0,0,0,0,0,0,0,0,0,0,0,0,0,0,0,0,0,0,0,0,0,0,0,0,0,0,0,0,0,0,0,0,0,0,0,0],"sum_hessian":[9.28E2,7.83E2,1.45E2,4.18E2,3.65E2,1.05E2,4E1,2.56E2,1.62E2,1.74E2,1.91E2,8E1,2.5E1,2E1,2E1,6.8E1,1.88E2,1.19E2,4.3E1,1.73E2,1E0,1.38E2,5.3E1,3.7E1,4.3E1,2.1E1,4E0,9E0,1.1E1,2E0,1.8E1,1.3E1,5.5E1,1.07E2,8.1E1,1.18E2,1E0,8E0,3.5E1,6E1,1.13E2,9.6E1,4.2E1,5.2E1,1E0,7E0,3E1,1E0,4.2E1,9E0,1.2E1,3E0,1E0,6E0,3E0,8E0,3E0,1E0,1E0,3E0,1.5E1],"tree_param":{"num_deleted":"0","num_feature":"255","num_nodes":"61","size_leaf_vector":"1"}},{"base_weights":[2.5858447E3,-1.5626574E4,6.3543395E4,-2.7655799E4,2.6438814E4,3.090995E4,1.18065125E5,-3.570926E4,-4.9007183E3,4.701817E3,3.943839E4,2.1460727E4,7.125086E4,1.0087347E5,2.1834975E5,-5.5212938E4,-3.1952178E4,-2.7536914E4,5.696957E2,5.0781617E4,-5.4357393E3,2.7815682E4,6.074669E4,-1.7809314E4,2.759667E4,6.655967E4,1.0343764E4,6.718315E4,1.3864747E5,1.9738995E5,2.4629398E4,-3.170772E3,-7.65221E2,-2.0037131E3,-1.16105E3,-1.3308698E3,-3.0703728E3,-6.113996E2,2.4547516E2,4.1100063E3,1.197508E3,2.8190596E3,-4.281201E2,1.0406447E3,2.227345E3,2.4501367E3,4.568719E3,-1.8036401E3,2.3290022E3,3.3153567E3,1.2319717E3,1.1075426E3,4.136432E3,2.2644106E3,4.7691455E3,6.3961426E3,1.0835664E4,8.284209E3,1.2951197E4],"categories":[],"categories_nodes":[],"categories_segments":[],"categories_sizes":[],"default_left":[0,0,0,0,0,0,0,0,0,0,0,0,0,0,0,0,0,0,0,0,0,0,0,0,0,0,0,0,0,0,0,0,0,0,0,0,0,0,0,0,0,0,0,0,0,0,0,0,0,0,0,0,0,0,0,0,0,0,0],"id":8,"left_children":[1,3,5,7,9,11,13,15,17,19,21,23,25,27,29,31,33,35,37,39,41,43,45,47,49,51,-1,53,55,57,-1,-1,-1,-1,-1,-1,-1,-1,-1,-1,-1,-1,-1,-1,-1,-1,-1,-1,-1,-1,-1,-1,-1,-1,-1,-1,-1,-1,-1],"loss_changes":[1.05689553E12,3.7090827E11,3.8965176E11,1.0445655E11,4.60592E10,5.2223066E10,1.4137282E11,3.084963E10,1.8450575E10,2.8495333E10,2.5261326E10,2.6746425E10,1.4304682E10,8.908328E10,5.7989333E10,7.237124E9,1.740125E10,2.7036652E9,5.488116E9,7.6853883E9,6.725428E9,7.464018E9,1.3046841E10,1.3616734E10,1.6206733E10,1.0240287E10,0E0,1.892637E10,4.2856677E10,1.9733676E10,0E0,0E0,0E0,0E0,0E0,0E0,0E0,0E0,0E0,0E0,0E0,0E0,0E0,0E0,0E0,0E0,0E0,0E0,0E0,0E0,0E0,0E0,0E0,0E0,0E0,0E0,0E0,0E0,0E0],"parents":[2147483647,0,0,1,1,2,2,3,3,4,4,5,5,6,6,7,7,8,8,9,9,10,10,11,11,12,12,13,13,14,14,15,15,16,16,17,17,18,18,19,19,20,20,21,21,22,22,23,23,24,24,25,25,27,27,28,28,29,29],"right_children":[2,4,6,8,10,12,14,16,18,20,22,24,26,28,30,32,34,36,38,40,42,44,46,48,50,52,-1,54,56,58,-1,-1,-1,-1,-1,-1,-1,-1,-1,-1,-1,-1,-1,-1,-1,-1,-1,-1,-1,-1,-1,-1,-1,-1,-1,-1,-1,-1,-1],"split_conditions":[5.9115946E-1,5.439922E-1,1.6503069E0,4.2169967E-1,5.873034E-1,8.632224E-1,2.2797172E0,2.62542E-1,-6.9572324E-1,3.3712563E-1,1.990029E-1,-1.7642695E0,2.7841904E0,9.817936E-1,2.3225603E0,4.9597582E-1,-3.7400258E-1,3.6681664E0,8.235053E-1,1.6377911E-1,-1.0624645E0,1.150356E0,1.4388912E0,-4.1857094E-2,1.7696331E-1,-4.3943968E-1,1.0343764E4,1.3469175E0,1.2993257E0,8.191486E-1,2.4629398E4,-3.170772E3,-7.65221E2,-2.0037131E3,-1.16105E3,-1.3308698E3,-3.0703728E3,-6.113996E2,2.4547516E2,4.1100063E3,1.197508E3,2.8190596E3,-4.281201E2,1.0406447E3,2.227345E3,2.4501367E3,4.568719E3,-1.8036401E3,2.3290022E3,3.3153567E3,1.2319717E3,1.1075426E3,4.136432E3,2.2644106E3,4.7691455E3,6.3961426E3,1.0835664E4,8.284209E3,1.2951197E4],"split_indices":[14,10,24,4,4,10,14,251,14,68,14,4,14,10,10,14,14,233,208,19,19,4,250,26,23,4,0,14,14,4,0,0,0,0,0,0,0,0,0,0,0,0,0,0,0,0,0,0,0,0,0,0,0,0,0,0,0,0,0],"split_type":[0,0,0,0,0,0,0,0,0,0,0,0,0,0,0,0,0,0,0,0,0,0,0,0,0,0,0,0,0,0,0,0,0,0,0,0,0,0,0,0,0,0,0,0,0,0,0,0,0,0,0,0,0,0,0,0,0,0,0],"sum_hessian":[9.52E2,7.33E2,2.19E2,5.7E2,1.63E2,1.37E2,8.2E1,4.21E2,1.49E2,6.1E1,1.02E2,1.11E2,2.6E1,7E1,1.2E1,6.8E1,3.53E2,2.9E1,1.2E2,1.1E1,5E1,6.6E1,3.6E1,1.5E1,9.6E1,2.5E1,1E0,3.7E1,3.3E1,1.1E1,1E0,6.4E1,4E0,2.48E2,1.05E2,2.6E1,3E0,3E1,9E1,6E0,5E0,2E0,4.8E1,3.9E1,2.7E1,2.1E1,1.5E1,1.2E1,3E0,1.3E1,8.3E1,4E0,2.1E1,1.6E1,2.1E1,2.4E1,9E0,5E0,6E0],"tree_param":{"num_deleted":"0","num_feature":"255","num_nodes":"59","size_leaf_vector":"1"}},{"base_weights":[-3.940768E2,-2.3293826E4,3.9613133E4,-3.1727428E4,-7.2905537E3,2.5449787E4,1.16308984E5,-3.669578E4,-6.497519E3,-1.1797964E4,2.51628E4,1.3909933E4,7.101232E4,1.0460831E5,4.146761E5,-4.6110207E4,-2.4563104E4,-1.20212705E4,4.6898742E4,-1.5800313E4,1.6946186E4,2.1010527E4,7.291394E4,3.7146567E3,3.8048746E4,6.336884E4,2.1114273E5,1.1114854E5,-5.5627074E4,2.3278102E4,2.2224467E4,-3.5355457E3,-2.2835518E3,-1.4256726E3,2.2669453E3,-1.06310905E2,-1.7951443E3,3.7565474E3,1.3896703E3,-1.1359227E3,-3.6305737E2,2.568199E1,2.2356404E3,1.3568474E3,-9.903099E2,4.1946123E3,3.8062634E3,3.9782657E2,-1.8334171E3,1.2976547E3,2.8774495E3,1.6378873E3,4.447252E3,1.45094E4,1.0121882E4,5.878266E3,1.6654365E4,-4.0786768E3,-2.0253041E3],"categories":[],"categories_nodes":[],"categories_segments":[],"categories_sizes":[],"default_left":[0,0,0,0,0,0,0,0,0,0,0,0,0,0,0,0,0,0,0,0,0,0,0,0,0,0,0,0,0,0,0,0,0,0,0,0,0,0,0,0,0,0,0,0,0,0,0,0,0,0,0,0,0,0,0,0,0,0,0],"id":9,"left_children":[1,3,5,7,9,11,13,15,17,19,21,23,25,27,29,31,33,35,37,39,41,43,45,47,49,51,53,55,57,-1,-1,-1,-1,-1,-1,-1,-1,-1,-1,-1,-1,-1,-1,-1,-1,-1,-1,-1,-1,-1,-1,-1,-1,-1,-1,-1,-1,-1,-1],"loss_changes":[8.556889E11,8.01694E10,3.6933173E11,4.876157E10,2.9987516E10,1.5090028E11,1.8502805E11,3.712218E10,1.887665E10,2.0707944E10,4.956894E9,5.635733E10,6.2122852E10,5.344677E10,1.8438554E8,1.5058436E10,1.330217E10,1.2105142E10,2.7915704E9,7.114707E9,8.628543E9,3.342042E9,2.5050112E7,2.1140711E10,1.4094721E10,3.2607355E10,4.2633626E9,3.7789827E10,7.003443E8,0E0,0E0,0E0,0E0,0E0,0E0,0E0,0E0,0E0,0E0,0E0,0E0,0E0,0E0,0E0,0E0,0E0,0E0,0E0,0E0,0E0,0E0,0E0,0E0,0E0,0E0,0E0,0E0,0E0,0E0],"parents":[2147483647,0,0,1,1,2,2,3,3,4,4,5,5,6,6,7,7,8,8,9,9,10,10,11,11,12,12,13,13,14,14,15,15,16,16,17,17,18,18,19,19,20,20,21,21,22,22,23,23,24,24,25,25,26,26,27,27,28,28],"right_children":[2,4,6,8,10,12,14,16,18,20,22,24,26,28,30,32,34,36,38,40,42,44,46,48,50,52,54,56,58,-1,-1,-1,-1,-1,-1,-1,-1,-1,-1,-1,-1,-1,-1,-1,-1,-1,-1,-1,-1,-1,-1,-1,-1,-1,-1,-1,-1,-1,-1],"split_conditions":[1.0523022E0,3.184746E-1,1.4515179E0,7.745735E-1,9.4027245E-1,1.3612196E0,2.8461676E0,-3.042479E-1,1.7759968E0,1.1343526E0,8.708737E0,8.198983E-1,2.683465E0,2.0886474E0,1.3671974E0,2.6381257E-1,1.6182292E0,3.4525867E0,1.1414198E0,1.5186527E-1,2.805921E-1,4.327786E0,5.3949344E-1,2.386891E0,9.7557515E-1,-3.535382E-1,-2.777089E-1,1.2178427E0,2.2040794E0,2.3278102E4,2.2224467E4,-3.5355457E3,-2.2835518E3,-1.4256726E3,2.2669453E3,-1.06310905E2,-1.7951443E3,3.7565474E3,1.3896703E3,-1.1359227E3,-3.6305737E2,2.568199E1,2.2356404E3,1.3568474E3,-9.903099E2,4.1946123E3,3.8062634E3,3.9782657E2,-1.8334171E3,1.2976547E3,2.8774495E3,1.6378873E3,4.447252E3,1.45094E4,1.0121882E4,5.878266E3,1.6654365E4,-4.0786768E3,-2.0253041E3],"split_indices":[239,250,10,12,11,12,12,10,12,12,108,10,12,0,0,247,11,96,184,5,23,98,5,55,5,11,0,5,0,0,0,0,0,0,0,0,0,0,0,0,0,0,0,0,0,0,0,0,0,0,0,0,0,0,0,0,0,0,0],"split_type":[0,0,0,0,0,0,0,0,0,0,0,0,0,0,0,0,0,0,0,0,0,0,0,0,0,0,0,0,0,0,0,0,0,0,0,0,0,0,0,0,0,0,0,0,0,0,0,0,0,0,0,0,0,0,0,0,0,0,0],"sum_hessian":[9.34E2,5.94E2,3.4E2,3.89E2,2.05E2,2.87E2,5.3E1,3.25E2,6.4E1,1.8E2,2.5E1,2.29E2,5.8E1,5.1E1,2E0,1.83E2,1.42E2,5.8E1,6E0,1.58E2,2.2E1,2.3E1,2E0,1.61E2,6.8E1,5.5E1,3E0,4.9E1,2E0,1E0,1E0,3.6E1,1.47E2,1.39E2,3E0,3.9E1,1.9E1,3E0,3E0,1.03E2,5.5E1,1.3E1,9E0,2.1E1,2E0,1E0,1E0,1.47E2,1.4E1,3.4E1,3.4E1,1.9E1,3.6E1,1E0,2E0,4.8E1,1E0,1E0,1E0],"tree_param":{"num_deleted":"0","num_feature":"255","num_nodes":"59","size_leaf_vector":"1"}},{"base_weights":[-1.2962974E3,-2.653191E4,2.676842E4,-3.5604574E4,-1.0180613E4,1.6467115E4,9.057005E4,-5.559752E4,-3.1710816E4,-1.6161276E4,2.3045297E4,-5.6744517E3,2.9605059E4,8.577858E4,2.1005117E4,-5.975935E4,-3.270745E4,-3.7053703E4,-2.3595676E4,-3.3399E4,-1.2029921E4,8.520532E3,1.0656269E5,-2.230426E4,2.727977E3,1.8243227E4,5.334837E4,1.3291373E4,9.999175E4,-5.1300483E3,-3.1432449E3,-1.3698942E3,-3.0683203E3,-2.2475151E3,-1.0138163E3,-1.3780796E3,9.705382E1,-1.9628076E3,-7.2518074E1,-8.7762836E2,9.756131E1,2.1618297E2,3.106107E3,7.5966675E3,4.096498E3,-1.4047678E3,7.677142E2,-5.2434753E2,4.7614877E2,4.6701956E2,2.2075293E3,8.9235077E2,3.452032E3,-1.3392207E3,2.7976885E3,5.0005737E3,1.1190617E4],"categories":[],"categories_nodes":[],"categories_segments":[],"categories_sizes":[],"default_left":[0,0,0,0,0,0,0,0,0,0,0,0,0,0,0,0,0,0,0,0,0,0,0,0,0,0,0,0,0,0,0,0,0,0,0,0,0,0,0,0,0,0,0,0,0,0,0,0,0,0,0,0,0,0,0,0,0],"id":10,"left_children":[1,3,5,7,9,11,13,15,17,19,21,23,25,27,-1,29,31,33,35,37,39,41,43,45,47,49,51,53,55,-1,-1,-1,-1,-1,-1,-1,-1,-1,-1,-1,-1,-1,-1,-1,-1,-1,-1,-1,-1,-1,-1,-1,-1,-1,-1,-1,-1],"loss_changes":[6.6715294E11,7.358153E10,2.9312903E11,2.4833393E10,3.5172196E10,1.1170355E11,8.6827794E10,4.9537516E9,1.1576672E10,1.0682278E10,3.2752902E10,1.99815E10,6.501399E10,6.2846697E10,0E0,3.6658053E9,1.4374426E9,1.1695227E10,4.0917975E9,2.2103368E9,6.626595E9,5.06641E9,4.0699003E9,5.7489654E9,6.9447255E9,3.488349E10,2.7681833E10,1.4213403E10,4.692253E10,0E0,0E0,0E0,0E0,0E0,0E0,0E0,0E0,0E0,0E0,0E0,0E0,0E0,0E0,0E0,0E0,0E0,0E0,0E0,0E0,0E0,0E0,0E0,0E0,0E0,0E0,0E0,0E0],"parents":[2147483647,0,0,1,1,2,2,3,3,4,4,5,5,6,6,7,7,8,8,9,9,10,10,11,11,12,12,13,13,15,15,16,16,17,17,18,18,19,19,20,20,21,21,22,22,23,23,24,24,25,25,26,26,27,27,28,28],"right_children":[2,4,6,8,10,12,14,16,18,20,22,24,26,28,-1,30,32,34,36,38,40,42,44,46,48,50,52,54,56,-1,-1,-1,-1,-1,-1,-1,-1,-1,-1,-1,-1,-1,-1,-1,-1,-1,-1,-1,-1,-1,-1,-1,-1,-1,-1,-1,-1],"split_conditions":[7.3599434E-1,9.6482195E-2,2.2430794E0,2.6381257E-1,9.63561E-1,-1.5763202E-1,1.2679187E1,8.636325E-3,1.1922633E-1,5.181334E-1,5.310367E0,3.184746E-1,4.5875418E-1,2.541337E-1,2.1005117E4,-1.7586166E0,-3.270298E-1,3.359161E-2,4.6932536E-1,5.8830056E0,2.6295316E-1,1.2806852E0,1.2806852E0,4.830459E0,-2.817354E-1,7.306751E-1,2.6515803E-1,2.417352E-1,2.605522E0,-5.1300483E3,-3.1432449E3,-1.3698942E3,-3.0683203E3,-2.2475151E3,-1.0138163E3,-1.3780796E3,9.705382E1,-1.9628076E3,-7.2518074E1,-8.7762836E2,9.756131E1,2.1618297E2,3.106107E3,7.5966675E3,4.096498E3,-1.4047678E3,7.677142E2,-5.2434753E2,4.7614877E2,4.6701956E2,2.2075293E3,8.9235077E2,3.452032E3,-1.3392207E3,2.7976885E3,5.0005737E3,1.1190617E4],"split_indices":[248,249,248,247,11,1,31,1,7,54,151,250,6,23,0,11,27,1,11,60,23,3,3,41,27,11,23,0,17,0,0,0,0,0,0,0,0,0,0,0,0,0,0,0,0,0,0,0,0,0,0,0,0,0,0,0,0],"split_type":[0,0,0,0,0,0,0,0,0,0,0,0,0,0,0,0,0,0,0,0,0,0,0,0,0,0,0,0,0,0,0,0,0,0,0,0,0,0,0,0,0,0,0,0,0,0,0,0,0,0,0,0,0,0,0,0,0],"sum_hessian":[9.42E2,4.96E2,4.46E2,3.19E2,1.77E2,3.84E2,6.2E1,5.2E1,2.67E2,1.5E2,2.7E1,1.43E2,2.41E2,6.1E1,1E0,4.4E1,8E0,1.61E2,1.06E2,2.9E1,1.21E2,2.3E1,4E0,4.8E1,9.5E1,1.63E2,7.8E1,1E1,5.1E1,3E0,4.1E1,6E0,2E0,1.33E2,2.8E1,1E2,6E0,2.7E1,2E0,9.4E1,2.7E1,2.1E1,2E0,2E0,2E0,4.4E1,4E0,3.1E1,6.4E1,1.13E2,5E1,1.6E1,6.2E1,5E0,5E0,4.7E1,4E0],"tree_param":{"num_deleted":"0","num_feature":"255","num_nodes":"57","size_leaf_vector":"1"}},{"base_weights":[-3.89874E2,-2.5293025E4,2.7067447E4,-3.3896684E4,-5.068842E3,1.3468817E4,7.239621E4,-6.632105E4,-3.1283377E4,-6.395878E3,9.578587E4,1.1710283E3,2.9919107E4,6.613799E4,2.9143394E5,-7.698784E4,-5.898762E4,-4.000429E4,-2.3591338E4,-1.4959992E4,5.3797793E3,1.5196287E3,8.990992E3,-1.5828156E4,9.920608E3,2.6081453E4,1.2458126E5,6.0179586E4,1.8530612E5,1.985267E4,2.5622866E5,-3.953522E3,-4.9451035E3,-2.9861511E3,-4.9878823E3,-3.0260466E3,-1.9294171E3,-2.2119856E3,-1.108335E3,-8.654649E2,3.0665435E3,-2.9302038E1,9.145953E2,-2.4229617E3,-5.467846E2,8.817068E1,1.8605441E3,1.0949999E3,3.4627478E3,1.0958542E4,4.7734927E3,-1.2246597E3,3.6953672E3,-2.2346765E2,1.2764439E4,1.5016708E4,1.3099363E4],"categories":[],"categories_nodes":[],"categories_segments":[],"categories_sizes":[],"default_left":[0,0,0,0,0,0,0,0,0,0,0,0,0,0,0,0,0,0,0,0,0,0,0,0,0,0,0,0,0,0,0,0,0,0,0,0,0,0,0,0,0,0,0,0,0,0,0,0,0,0,0,0,0,0,0,0,0],"id":11,"left_children":[1,3,5,7,9,11,13,15,17,19,21,23,25,27,29,31,33,35,37,39,41,-1,-1,43,45,47,49,51,53,-1,55,-1,-1,-1,-1,-1,-1,-1,-1,-1,-1,-1,-1,-1,-1,-1,-1,-1,-1,-1,-1,-1,-1,-1,-1,-1,-1],"loss_changes":[6.728335E11,8.9784975E10,2.884795E11,3.067406E10,2.061102E10,7.28288E10,1.480449E11,2.1120532E9,2.2472327E10,1.5328907E10,9.272054E9,3.0639563E10,5.5945232E10,7.455552E10,7.436468E9,7.1265485E8,2.3294607E9,1.150686E10,1.0093281E10,5.077754E9,4.2731446E9,0E0,0E0,1.1626926E10,2.712483E10,3.3561264E10,1.6944587E10,5.9185955E10,4.483059E10,0E0,6.106235E8,0E0,0E0,0E0,0E0,0E0,0E0,0E0,0E0,0E0,0E0,0E0,0E0,0E0,0E0,0E0,0E0,0E0,0E0,0E0,0E0,0E0,0E0,0E0,0E0,0E0,0E0],"parents":[2147483647,0,0,1,1,2,2,3,3,4,4,5,5,6,6,7,7,8,8,9,9,10,10,11,11,12,12,13,13,14,14,15,15,16,16,17,17,18,18,19,19,20,20,23,23,24,24,25,25,26,26,27,27,28,28,30,30],"right_children":[2,4,6,8,10,12,14,16,18,20,22,24,26,28,30,32,34,36,38,40,42,-1,-1,44,46,48,50,52,54,-1,56,-1,-1,-1,-1,-1,-1,-1,-1,-1,-1,-1,-1,-1,-1,-1,-1,-1,-1,-1,-1,-1,-1,-1,-1,-1,-1],"split_conditions":[-4.0859856E-2,-2.7497906E-2,1.0200638E0,-5.171998E-1,7.5762787E0,-1.694075E-2,2.8461676E0,2.6561806E-1,-6.128253E-1,6.8485403E-1,3.8174272E-1,-2.3576288E-1,1.1209357E0,1.1693892E0,-5.0986546E-1,4.5902961E-1,3.6681664E0,-9.4954884E-1,-1.3501939E0,5.7387304E0,6.716843E-1,1.5196287E3,8.990992E3,2.6381257E-1,7.8533405E-1,1.5391885E0,1.1693892E0,-3.326699E-1,1.1450905E0,1.985267E4,5.8794695E-1,-3.953522E3,-4.9451035E3,-2.9861511E3,-4.9878823E3,-3.0260466E3,-1.9294171E3,-2.2119856E3,-1.108335E3,-8.654649E2,3.0665435E3,-2.9302038E1,9.145953E2,-2.4229617E3,-5.467846E2,8.817068E1,1.8605441E3,1.0949999E3,3.4627478E3,1.0958542E4,4.7734927E3,-1.2246597E3,3.6953672E3,-2.2346765E2,1.2764439E4,1.5016708E4,1.3099363E4],"split_indices":[14,11,25,3,101,10,12,252,25,5,3,5,5,5,6,28,233,10,5,8,10,0,0,247,14,14,5,5,6,0,5,0,0,0,0,0,0,0,0,0,0,0,0,0,0,0,0,0,0,0,0,0,0,0,0,0,0],"split_type":[0,0,0,0,0,0,0,0,0,0,0,0,0,0,0,0,0,0,0,0,0,0,0,0,0,0,0,0,0,0,0,0,0,0,0,0,0,0,0,0,0,0,0,0,0,0,0,0,0,0,0,0,0,0,0,0,0],"sum_hessian":[9.84E2,5.16E2,4.68E2,3.62E2,1.54E2,3.6E2,1.08E2,2.7E1,3.35E2,1.52E2,2E0,2.06E2,1.54E2,1.05E2,3E0,1.1E1,1.6E1,1.57E2,1.78E2,8.8E1,6.4E1,1E0,1E0,7E1,1.36E2,1.48E2,6E0,1E2,5E0,1E0,2E0,8E0,3E0,1.4E1,2E0,3.8E1,1.19E2,3E1,1.48E2,8.7E1,1E0,4.2E1,2.2E1,1.2E1,5.8E1,1.01E2,3.5E1,1.27E2,2.1E1,2E0,4E0,8E0,9.2E1,1E0,4E0,1E0,1E0],"tree_param":{"num_deleted":"0","num_feature":"255","num_nodes":"57","size_leaf_vector":"1"}},{"base_weights":[-1.0576355E3,-1.3029968E4,6.700426E4,-3.149054E4,1.3194698E3,6.0506582E4,2.5023856E5,-4.19567E4,-2.1308785E4,-9.80178E3,1.446749E4,3.480639E4,8.067635E4,1.326385E5,3.286386E5,-5.35826E4,-3.500192E4,-2.8792494E4,-1.1138614E4,-4.477093E3,-3.1420012E4,1.1331339E4,6.725936E4,1.6749822E4,5.406673E4,6.442588E4,1.1197356E5,9.142639E3,5.4118374E3,1.4765939E4,3.5839225E5,-4.2981313E3,-2.7556423E3,-2.2460728E3,-1.2038796E3,-3.0267197E3,-1.5080717E3,-1.4317405E3,-2.2403822E2,-6.316357E2,3.1243436E2,-1.8190962E3,2.9424512E3,4.3695944E2,2.1331787E3,5.4252485E3,1.9551476E3,-1.1853058E3,1.3086654E3,1.714963E3,3.9233496E3,3.2924353E3,7.492361E3,1.41928125E4,5.8338613E3,2.0563074E4,1.876345E4],"categories":[],"categories_nodes":[],"categories_segments":[],"categories_sizes":[],"default_left":[0,0,0,0,0,0,0,0,0,0,0,0,0,0,0,0,0,0,0,0,0,0,0,0,0,0,0,0,0,0,0,0,0,0,0,0,0,0,0,0,0,0,0,0,0,0,0,0,0,0,0,0,0,0,0,0,0],"id":12,"left_children":[1,3,5,7,9,11,13,15,17,19,21,23,25,27,29,31,33,35,37,39,41,43,45,47,49,51,53,-1,-1,-1,55,-1,-1,-1,-1,-1,-1,-1,-1,-1,-1,-1,-1,-1,-1,-1,-1,-1,-1,-1,-1,-1,-1,-1,-1,-1,-1],"loss_changes":[7.953029E11,2.1986599E11,1.738271E11,3.8682722E10,6.8285866E10,7.308978E10,4.6099235E10,1.4473167E10,1.4004355E10,2.912291E10,3.5430535E10,2.1562081E10,4.0178975E10,2.3119585E9,5.31166E9,5.5682335E9,8.682463E9,3.6501094E9,8.2308977E9,1.4527061E10,7.3812214E9,1.8737594E10,1.2000838E10,8.717114E9,1.1935138E10,1.6565436E10,2.2352167E10,0E0,0E0,0E0,5.379359E8,0E0,0E0,0E0,0E0,0E0,0E0,0E0,0E0,0E0,0E0,0E0,0E0,0E0,0E0,0E0,0E0,0E0,0E0,0E0,0E0,0E0,0E0,0E0,0E0,0E0,0E0],"parents":[2147483647,0,0,1,1,2,2,3,3,4,4,5,5,6,6,7,7,8,8,9,9,10,10,11,11,12,12,13,13,14,14,15,15,16,16,17,17,18,18,19,19,20,20,21,21,22,22,23,23,24,24,25,25,26,26,30,30],"right_children":[2,4,6,8,10,12,14,16,18,20,22,24,26,28,30,32,34,36,38,40,42,44,46,48,50,52,54,-1,-1,-1,56,-1,-1,-1,-1,-1,-1,-1,-1,-1,-1,-1,-1,-1,-1,-1,-1,-1,-1,-1,-1,-1,-1,-1,-1,-1,-1],"split_conditions":[1.3747946E0,-7.1836114E-2,2.575649E0,-2.031832E-1,6.5147924E-1,1.6503069E0,1.7334672E0,-7.951515E-1,-2.3709522E-1,2.386891E0,1.4746623E0,5.573045E-1,2.09811E0,-1.056875E0,1.2517654E0,-2.3811236E-1,-3.6110148E-1,-1.3006076E0,-1.1079262E0,3.4567937E-1,2.1193454E-2,1.028856E0,1.3546038E0,2.578214E-1,-1.5931796E-1,1.4826294E0,5.8794695E-1,9.142639E3,5.4118374E3,1.4765939E4,1.3671974E0,-4.2981313E3,-2.7556423E3,-2.2460728E3,-1.2038796E3,-3.0267197E3,-1.5080717E3,-1.4317405E3,-2.2403822E2,-6.316357E2,3.1243436E2,-1.8190962E3,2.9424512E3,4.3695944E2,2.1331787E3,5.4252485E3,1.9551476E3,-1.1853058E3,1.3086654E3,1.714963E3,3.9233496E3,3.2924353E3,7.492361E3,1.41928125E4,5.8338613E3,2.0563074E4,1.876345E4],"split_indices":[2,2,11,7,2,24,7,2,11,55,7,11,2,0,0,240,26,11,5,5,32,6,160,59,7,0,5,0,0,0,0,0,0,0,0,0,0,0,0,0,0,0,0,0,0,0,0,0,0,0,0,0,0,0,0,0,0],"split_type":[0,0,0,0,0,0,0,0,0,0,0,0,0,0,0,0,0,0,0,0,0,0,0,0,0,0,0,0,0,0,0,0,0,0,0,0,0,0,0,0,0,0,0,0,0,0,0,0,0,0,0,0,0,0,0,0,0],"sum_hessian":[9.76E2,8.3E2,1.46E2,3.63E2,4.67E2,1.41E2,5E0,1.79E2,1.84E2,2.53E2,2.14E2,6.2E1,7.9E1,2E0,3E0,6.7E1,1.12E2,1.06E2,7.8E1,2.03E2,5E1,2.02E2,1.2E1,3.2E1,3E1,5.2E1,2.7E1,1E0,1E0,1E0,2E0,8E0,5.9E1,7.7E1,3.5E1,5E0,1.01E2,2.5E1,5.3E1,1.2E2,8.3E1,4.9E1,1E0,1.8E2,2.2E1,6E0,6E0,5E0,2.7E1,1.3E1,1.7E1,4.9E1,3E0,1E0,2.6E1,1E0,1E0],"tree_param":{"num_deleted":"0","num_feature":"255","num_nodes":"57","size_leaf_vector":"1"}},{"base_weights":[1.5393321E2,-1.9245547E4,3.5130906E4,-2.8461795E4,-4.973969E3,2.2550863E4,1.0059371E5,-3.5885625E4,-1.8307916E4,-7.1661226E3,6.705392E4,1.3706311E4,6.059913E4,8.2679414E4,2.7615375E5,-4.154046E4,-2.4655594E4,-2.4049125E4,-3.8244092E3,-1.5143047E4,3.2038787E3,1.2095161E5,4.5494848E4,8.480625E3,3.2309748E4,5.524143E4,1.972205E5,6.3764844E4,1.2169073E5,3.38729E5,2.3443692E5,-2.1894175E3,-3.454304E3,-1.7858589E3,-9.3164044E2,-1.8025648E3,-9.900705E2,-3.2187906E2,4.6084116E3,-1.3868936E3,-3.2382382E2,-1.4310912E2,2.1346807E3,6.9333438E3,6.338724E3,2.725424E3,1.5787228E3,-1.529256E2,8.755098E2,4.66126E3,1.5215001E3,2.4962036E3,4.2003315E3,8.226962E3,1.3414121E4,2.2714294E3,4.402607E3,7.349741E3,-3.4207515E3,1.9434877E4,1.773399E4,1.2489819E4,1.3607646E4],"categories":[],"categories_nodes":[],"categories_segments":[],"categories_sizes":[],"default_left":[0,0,0,0,0,0,0,0,0,0,0,0,0,0,0,0,0,0,0,0,0,0,0,0,0,0,0,0,0,0,0,0,0,0,0,0,0,0,0,0,0,0,0,0,0,0,0,0,0,0,0,0,0,0,0,0,0,0,0,0,0,0,0],"id":13,"left_children":[1,3,5,7,9,11,13,15,17,19,21,23,25,27,29,31,33,35,37,39,41,43,45,47,49,51,53,55,57,59,61,-1,-1,-1,-1,-1,-1,-1,-1,-1,-1,-1,-1,-1,-1,-1,-1,-1,-1,-1,-1,-1,-1,-1,-1,-1,-1,-1,-1,-1,-1,-1,-1],"loss_changes":[6.3714433E11,7.944436E10,2.758808E11,2.7664712E10,3.7421396E10,9.456211E10,1.6983186E11,1.3462847E10,1.2888691E10,1.9025766E10,8.133888E9,2.216518E10,3.8794756E10,3.615621E10,1.3052183E10,4.9380884E9,4.301857E9,5.867864E9,7.891633E9,1.2175499E10,2.075199E10,5.872845E7,3.4945946E8,1.4996234E10,1.2051653E10,1.0593206E10,4.469252E9,1.2162228E10,3.612839E10,4.8054272E8,2.7672576E8,0E0,0E0,0E0,0E0,0E0,0E0,0E0,0E0,0E0,0E0,0E0,0E0,0E0,0E0,0E0,0E0,0E0,0E0,0E0,0E0,0E0,0E0,0E0,0E0,0E0,0E0,0E0,0E0,0E0,0E0,0E0,0E0],"parents":[2147483647,0,0,1,1,2,2,3,3,4,4,5,5,6,6,7,7,8,8,9,9,10,10,11,11,12,12,13,13,14,14,15,15,16,16,17,17,18,18,19,19,20,20,21,21,22,22,23,23,24,24,25,25,26,26,27,27,28,28,29,29,30,30],"right_children":[2,4,6,8,10,12,14,16,18,20,22,24,26,28,30,32,34,36,38,40,42,44,46,48,50,52,54,56,58,60,62,-1,-1,-1,-1,-1,-1,-1,-1,-1,-1,-1,-1,-1,-1,-1,-1,-1,-1,-1,-1,-1,-1,-1,-1,-1,-1,-1,-1,-1,-1,-1,-1],"split_conditions":[1.0523022E0,9.6482195E-2,2.2430794E0,-4.2957696E-1,1.7786617E0,1.071102E0,2.605522E0,8.235053E-1,7.897405E-1,-1.7147422E-2,2.096939E0,6.6354805E-1,2.605522E0,1.7005683E0,5.8794695E-1,6.201569E0,-3.3801246E-1,-4.049633E-1,1.0786173E0,1.2275854E0,1.5102645E0,-1.056875E0,-5.0986546E-1,-7.036146E-2,3.3712563E-1,1.3801681E0,5.8803123E-1,5.303152E-1,1.6557775E0,1.3671974E0,8.188953E-1,-2.1894175E3,-3.454304E3,-1.7858589E3,-9.3164044E2,-1.8025648E3,-9.900705E2,-3.2187906E2,4.6084116E3,-1.3868936E3,-3.2382382E2,-1.4310912E2,2.1346807E3,6.9333438E3,6.338724E3,2.725424E3,1.5787228E3,-1.529256E2,8.755098E2,4.66126E3,1.5215001E3,2.4962036E3,4.2003315E3,8.226962E3,1.3414121E4,2.2714294E3,4.402607E3,7.349741E3,-3.4207515E3,1.9434877E4,1.773399E4,1.2489819E4,1.3607646E4],"split_indices":[239,249,248,5,11,7,17,208,17,11,11,6,17,7,5,88,11,7,0,18,131,0,6,27,68,11,0,0,0,0,0,0,0,0,0,0,0,0,0,0,0,0,0,0,0,0,0,0,0,0,0,0,0,0,0,0,0,0,0,0,0,0,0],"split_type":[0,0,0,0,0,0,0,0,0,0,0,0,0,0,0,0,0,0,0,0,0,0,0,0,0,0,0,0,0,0,0,0,0,0,0,0,0,0,0,0,0,0,0,0,0,0,0,0,0,0,0,0,0,0,0,0,0,0,0,0,0,0,0],"sum_hessian":[9.39E2,6.04E2,3.35E2,3.67E2,2.37E2,2.81E2,5.4E1,2.12E2,1.55E2,2.3E2,7E0,2.28E2,5.3E1,4.9E1,5E0,1.41E2,7.1E1,1.11E2,4.4E1,1.3E2,1E2,2E0,5E0,1.78E2,5E1,5.1E1,2E0,3.3E1,1.6E1,2E0,3E0,1.31E2,1E1,3.5E1,3.6E1,4.5E1,6.6E1,4.3E1,1E0,6.2E1,6.8E1,8.6E1,1.4E1,1E0,1E0,4E0,1E0,7.1E1,1.07E2,4E0,4.6E1,3.5E1,1.6E1,1E0,1E0,1.4E1,1.9E1,1.5E1,1E0,1E0,1E0,2E0,1E0],"tree_param":{"num_deleted":"0","num_feature":"255","num_nodes":"63","size_leaf_vector":"1"}},{"base_weights":[9.059007E2,-1.7514357E4,3.2887742E4,-2.5491545E4,2.1288872E3,1.8650863E4,9.1960164E4,-3.2550025E4,-1.5561815E4,-9.075234E3,1.1328061E4,-8.9418085E2,3.2854402E4,8.314873E4,2.307402E5,-3.8063867E4,-2.0902033E4,-2.0061652E4,-3.807142E3,-1.4874757E4,-5.450533E3,8.815811E3,4.2910637E4,-1.4855299E4,1.2368882E4,2.4567883E4,7.057237E4,7.072068E4,1.5771702E5,1.676101E4,2.0582212E5,-3.0677175E3,-1.9262848E3,-2.230428E3,-9.919894E2,-1.7310494E3,-9.4768585E2,-1.0756357E2,-5.07205E3,-9.8775183E2,-2.5212912E2,-3.6112714E2,6.321937E2,3.2234714E2,1.3364468E3,2.6838748E3,1.5303656E3,-1.031315E3,1.0233061E3,-4.5346832E2,1.2882078E3,1.1382305E3,3.2674043E3,4.712083E3,1.2316006E3,2.7790305E3,5.065876E3,6.291547E3,1.0542479E4,9.007053E3,1.2435182E4],"categories":[],"categories_nodes":[],"categories_segments":[],"categories_sizes":[],"default_left":[0,0,0,0,0,0,0,0,0,0,0,0,0,0,0,0,0,0,0,0,0,0,0,0,0,0,0,0,0,0,0,0,0,0,0,0,0,0,0,0,0,0,0,0,0,0,0,0,0,0,0,0,0,0,0,0,0,0,0,0,0],"id":14,"left_children":[1,3,5,7,9,11,13,15,17,19,21,23,25,27,29,31,33,35,37,39,41,43,45,47,49,51,53,55,57,-1,59,-1,-1,-1,-1,-1,-1,-1,-1,-1,-1,-1,-1,-1,-1,-1,-1,-1,-1,-1,-1,-1,-1,-1,-1,-1,-1,-1,-1,-1,-1],"loss_changes":[5.5612336E11,9.3862E10,2.9014734E11,2.9857841E10,1.783088E10,7.717525E10,8.1931076E10,1.5992062E10,9.362256E9,1.6396795E9,7.537617E9,2.166456E10,5.032067E10,5.8384482E10,7.4509025E9,8.912503E9,4.458234E9,4.1010995E9,8.0204713E9,9.6476416E8,9.2188685E8,4.0220227E9,6.31466E8,7.5286323E9,1.3755412E10,1.765E10,2.137016E10,2.3421665E10,1.3340164E10,0E0,2.6027295E9,0E0,0E0,0E0,0E0,0E0,0E0,0E0,0E0,0E0,0E0,0E0,0E0,0E0,0E0,0E0,0E0,0E0,0E0,0E0,0E0,0E0,0E0,0E0,0E0,0E0,0E0,0E0,0E0,0E0,0E0],"parents":[2147483647,0,0,1,1,2,2,3,3,4,4,5,5,6,6,7,7,8,8,9,9,10,10,11,11,12,12,13,13,14,14,15,15,16,16,17,17,18,18,19,19,20,20,21,21,22,22,23,23,24,24,25,25,26,26,27,27,28,28,30,30],"right_children":[2,4,6,8,10,12,14,16,18,20,22,24,26,28,30,32,34,36,38,40,42,44,46,48,50,52,54,56,58,-1,60,-1,-1,-1,-1,-1,-1,-1,-1,-1,-1,-1,-1,-1,-1,-1,-1,-1,-1,-1,-1,-1,-1,-1,-1,-1,-1,-1,-1,-1,-1],"split_conditions":[2.1803963E-1,4.548204E-1,1.7244883E0,-1.4562659E-2,9.670791E-2,7.3599434E-1,2.575649E0,-3.7400258E-1,1.8986228E-1,-5.548515E-1,2.2430794E0,-3.2819915E-1,1.6686382E0,2.1102903E0,8.5226935E-1,-5.171998E-1,-5.171998E-1,1.8798766E-1,8.485281E0,5.60072E-1,3.1824896E-1,8.9841586E-1,3.3116784E0,4.9287724E-1,4.6742076E-1,1.5448467E0,-1.15024514E-1,1.321134E0,1.0644783E0,1.676101E4,2.8369987E0,-3.0677175E3,-1.9262848E3,-2.230428E3,-9.919894E2,-1.7310494E3,-9.4768585E2,-1.0756357E2,-5.07205E3,-9.8775183E2,-2.5212912E2,-3.6112714E2,6.321937E2,3.2234714E2,1.3364468E3,2.6838748E3,1.5303656E3,-1.031315E3,1.0233061E3,-4.5346832E2,1.2882078E3,1.1382305E3,3.2674043E3,4.712083E3,1.2316006E3,2.7790305E3,5.065876E3,6.291547E3,1.0542479E4,9.007053E3,1.2435182E4],"split_indices":[14,4,241,7,11,248,11,14,11,14,248,7,14,14,4,3,3,23,236,7,25,25,230,26,14,7,8,7,11,0,11,0,0,0,0,0,0,0,0,0,0,0,0,0,0,0,0,0,0,0,0,0,0,0,0,0,0,0,0,0,0],"split_type":[0,0,0,0,0,0,0,0,0,0,0,0,0,0,0,0,0,0,0,0,0,0,0,0,0,0,0,0,0,0,0,0,0,0,0,0,0,0,0,0,0,0,0,0,0,0,0,0,0,0,0,0,0,0,0,0,0,0,0,0,0],"sum_hessian":[9.44E2,5.99E2,3.45E2,4.26E2,1.73E2,2.78E2,6.7E1,2.49E2,1.77E2,7.8E1,9.5E1,1.17E2,1.61E2,6.3E1,4E0,1.69E2,8E1,1.28E2,4.9E1,3E1,4.8E1,8.8E1,7E0,5.7E1,6E1,1.32E2,2.9E1,5.4E1,9E0,1E0,3E0,2.4E1,1.45E2,1E1,7E1,2.5E1,1.03E2,4.8E1,1E0,2.3E1,7E0,4.5E1,3E0,7.4E1,1.4E1,5E0,2E0,5.1E1,6E0,2.1E1,3.9E1,1.19E2,1.3E1,2.2E1,7E0,2.8E1,2.6E1,4E0,5E0,1E0,2E0],"tree_param":{"num_deleted":"0","num_feature":"255","num_nodes":"61","size_leaf_vector":"1"}},{"base_weights":[2.4648311E2,-6.3130024E3,6.8599305E4,-2.1801146E4,6.4909414E3,5.1554223E4,1.3488573E5,-2.9580162E4,-1.1341229E4,-8.336379E3,1.892851E4,3.086443E4,7.758332E4,1.0511322E5,2.3908952E5,-4.2260695E4,-2.4916057E4,3.0539343E2,-1.7465746E4,-2.2308896E4,1.0466266E3,1.771764E4,1.8300134E5,1.917248E4,5.7171316E4,6.369605E4,9.681184E4,9.597812E4,1.2282645E4,1.7448984E4,2.1277477E5,-2.7909353E3,-2.0712493E3,-2.0340208E3,-1.1412719E3,-5.6765766E1,4.4280293E3,-1.1143958E3,2.7880148E2,-1.1638063E3,-3.9318901E3,-6.2115E2,4.004385E2,-1.2440952E2,1.3539446E3,8.824573E3,1.1256237E4,2.109052E2,2.7338955E3,2.530303E3,4.349541E3,3.2688586E3,7.3339395E3,4.3653193E3,5.9030273E3,3.7558395E2,5.6733813E3,1.1075744E4,1.2870299E4],"categories":[],"categories_nodes":[],"categories_segments":[],"categories_sizes":[],"default_left":[0,0,0,0,0,0,0,0,0,0,0,0,0,0,0,0,0,0,0,0,0,0,0,0,0,0,0,0,0,0,0,0,0,0,0,0,0,0,0,0,0,0,0,0,0,0,0,0,0,0,0,0,0,0,0,0,0,0,0],"id":15,"left_children":[1,3,5,7,9,11,13,15,17,19,21,23,25,27,29,31,33,35,37,39,41,43,45,47,49,51,53,55,-1,-1,57,-1,-1,-1,-1,-1,-1,-1,-1,-1,-1,-1,-1,-1,-1,-1,-1,-1,-1,-1,-1,-1,-1,-1,-1,-1,-1,-1,-1],"loss_changes":[4.5060116E11,1.8184965E11,9.942748E10,3.376767E10,9.2576735E10,3.769757E10,5.5843324E10,1.4076101E10,1.2625398E10,3.0022865E10,5.423712E10,1.1995574E10,8.2779996E9,1.5187919E10,8.3095716E9,2.484183E9,8.703853E9,6.572229E9,7.443104E9,4.980228E9,1.0593434E10,3.7695357E10,9.8216346E8,1.2687864E10,2.931929E9,5.1846676E9,2.4169595E9,8.606654E9,0E0,0E0,7.132201E8,0E0,0E0,0E0,0E0,0E0,0E0,0E0,0E0,0E0,0E0,0E0,0E0,0E0,0E0,0E0,0E0,0E0,0E0,0E0,0E0,0E0,0E0,0E0,0E0,0E0,0E0,0E0,0E0],"parents":[2147483647,0,0,1,1,2,2,3,3,4,4,5,5,6,6,7,7,8,8,9,9,10,10,11,11,12,12,13,13,14,14,15,15,16,16,17,17,18,18,19,19,20,20,21,21,22,22,23,23,24,24,25,25,26,26,27,27,30,30],"right_children":[2,4,6,8,10,12,14,16,18,20,22,24,26,28,30,32,34,36,38,40,42,44,46,48,50,52,54,56,-1,-1,58,-1,-1,-1,-1,-1,-1,-1,-1,-1,-1,-1,-1,-1,-1,-1,-1,-1,-1,-1,-1,-1,-1,-1,-1,-1,-1,-1,-1],"split_conditions":[1.7244883E0,-4.1948803E-2,2.143103E0,9.6482195E-2,6.488901E-1,1.4483432E0,2.096939E0,5.181334E-1,7.6051193E-1,5.8316785E-1,3.3739958E0,4.1306615E-1,1.4577967E0,3.3739958E0,5.3949344E-1,-1.1764017E0,-1.3986474E0,1.55670595E1,9.899514E-1,1.7058722E1,-3.1868327E-1,-5.243212E-1,4.425864E-1,9.1220975E-1,3.3116784E0,6.6844845E-1,8.061992E-2,4.9103993E-1,1.2282645E4,1.7448984E4,1.1693892E0,-2.7909353E3,-2.0712493E3,-2.0340208E3,-1.1412719E3,-5.6765766E1,4.4280293E3,-1.1143958E3,2.7880148E2,-1.1638063E3,-3.9318901E3,-6.2115E2,4.004385E2,-1.2440952E2,1.3539446E3,8.824573E3,1.1256237E4,2.109052E2,2.7338955E3,2.530303E3,4.349541E3,3.2688586E3,7.3339395E3,4.3653193E3,5.9030273E3,3.7558395E2,5.6733813E3,1.1075744E4,1.2870299E4],"split_indices":[241,5,21,249,249,7,11,54,64,241,21,26,11,21,5,11,5,147,7,201,21,11,5,21,230,29,27,5,0,0,5,0,0,0,0,0,0,0,0,0,0,0,0,0,0,0,0,0,0,0,0,0,0,0,0,0,0,0,0],"split_type":[0,0,0,0,0,0,0,0,0,0,0,0,0,0,0,0,0,0,0,0,0,0,0,0,0,0,0,0,0,0,0,0,0,0,0,0,0,0,0,0,0,0,0,0,0,0,0,0,0,0,0,0,0,0,0,0,0,0,0],"sum_hessian":[1.005E3,9.17E2,8.8E1,4.15E2,5.02E2,7E1,1.8E1,2.38E2,1.77E2,2.29E2,2.73E2,3.9E1,3.1E1,1.4E1,4E0,6.4E1,1.74E2,6.1E1,1.16E2,9.2E1,1.37E2,2.71E2,2E0,2.7E1,1.2E1,1.8E1,1.3E1,1.3E1,1E0,1E0,3E0,2.2E1,4.2E1,4.4E1,1.3E2,6E1,1E0,1.03E2,1.3E1,9E1,2E0,4.6E1,9.1E1,7E1,2.01E2,1E0,1E0,1.8E1,9E0,8E0,4E0,1.7E1,1E0,5E0,8E0,1E0,1.2E1,2E0,1E0],"tree_param":{"num_deleted":"0","num_feature":"255","num_nodes":"59","size_leaf_vector":"1"}},{"base_weights":[4.7390295E2,-1.6735291E4,3.001132E4,-2.4173938E4,-4.6806997E3,1.712003E4,7.023837E4,-2.6831998E4,6.439598E3,-7.1947646E3,7.325531E4,-3.7744697E3,2.5960008E4,6.56091E4,2.5772356E5,-3.425507E4,-2.198128E4,-2.6929941E3,3.0412652E4,-8.622476E3,3.5636547E4,1.0165377E5,3.5390703E4,-1.6052721E4,1.0209094E4,1.8488344E4,5.7341004E4,6.819208E4,-7.7376006E3,1.649164E4,1.1788467E4,-2.580552E3,-1.6991179E3,-1.7621143E3,-9.8739966E2,-3.108626E2,1.4018024E3,1.1348734E3,3.2697646E3,-7.126665E2,8.597567E1,2.5747092E3,4.0644952E2,3.1140369E3,6.398327E3,2.6216858E3,5.81782E2,-7.9083563E2,-4.4767393E3,-3.147206E2,8.100796E2,8.734282E2,3.8331357E3,2.0675815E3,4.583951E3,4.729027E3,2.7537173E3],"categories":[],"categories_nodes":[],"categories_segments":[],"categories_sizes":[],"default_left":[0,0,0,0,0,0,0,0,0,0,0,0,0,0,0,0,0,0,0,0,0,0,0,0,0,0,0,0,0,0,0,0,0,0,0,0,0,0,0,0,0,0,0,0,0,0,0,0,0,0,0,0,0,0,0,0,0],"id":16,"left_children":[1,3,5,7,9,11,13,15,17,19,21,23,25,27,29,31,33,35,37,39,41,43,45,47,49,51,53,55,-1,-1,-1,-1,-1,-1,-1,-1,-1,-1,-1,-1,-1,-1,-1,-1,-1,-1,-1,-1,-1,-1,-1,-1,-1,-1,-1,-1,-1],"loss_changes":[4.722248E11,5.263619E10,1.7735385E11,2.9538271E10,4.3889713E10,4.78391E10,7.203724E10,1.2026429E10,6.349147E9,1.3269706E10,7.527076E9,1.3220414E10,4.2673234E10,4.323318E10,3.674153E9,5.543248E9,8.157946E9,1.7632553E9,2.2711654E9,9.34435E9,2.2311598E9,2.6875126E9,9.2158234E8,4.4032184E9,2.6151844E9,1.9400475E10,1.803051E10,2.5924272E10,0E0,0E0,0E0,0E0,0E0,0E0,0E0,0E0,0E0,0E0,0E0,0E0,0E0,0E0,0E0,0E0,0E0,0E0,0E0,0E0,0E0,0E0,0E0,0E0,0E0,0E0,0E0,0E0,0E0],"parents":[2147483647,0,0,1,1,2,2,3,3,4,4,5,5,6,6,7,7,8,8,9,9,10,10,11,11,12,12,13,13,14,14,15,15,16,16,17,17,18,18,19,19,20,20,21,21,22,22,23,23,24,24,25,25,26,26,27,27],"right_children":[2,4,6,8,10,12,14,16,18,20,22,24,26,28,30,32,34,36,38,40,42,44,46,48,50,52,54,56,-1,-1,-1,-1,-1,-1,-1,-1,-1,-1,-1,-1,-1,-1,-1,-1,-1,-1,-1,-1,-1,-1,-1,-1,-1,-1,-1,-1,-1],"split_conditions":[1.0523022E0,9.6482195E-2,1.7244883E0,7.8602785E-1,1.7165588E0,-4.8033163E-1,5.224363E0,-6.951042E-1,9.3269295E-1,1.597253E0,-1.7447373E-1,1.0312312E0,1.3900228E0,2.694923E0,7.8602785E-1,-1.3006076E0,-7.33674E-1,5.184902E-1,6.20891E-1,5.8316785E-1,3.9485326E0,1.7786617E0,-8.8700075E-3,1.7058722E1,-1.0107939E0,1.9028676E0,5.573045E-1,3.902926E-1,-7.7376006E3,1.649164E4,1.1788467E4,-2.580552E3,-1.6991179E3,-1.7621143E3,-9.8739966E2,-3.108626E2,1.4018024E3,1.1348734E3,3.2697646E3,-7.126665E2,8.597567E1,2.5747092E3,4.0644952E2,3.1140369E3,6.398327E3,2.6216858E3,5.81782E2,-7.9083563E2,-4.4767393E3,-3.147206E2,8.100796E2,8.734282E2,3.8331357E3,2.0675815E3,4.583951E3,4.729027E3,2.7537173E3],"split_indices":[239,249,241,4,11,11,6,11,12,12,4,12,19,12,4,11,244,11,33,241,210,11,4,201,11,11,11,232,0,0,0,0,0,0,0,0,0,0,0,0,0,0,0,0,0,0,0,0,0,0,0,0,0,0,0,0,0],"split_type":[0,0,0,0,0,0,0,0,0,0,0,0,0,0,0,0,0,0,0,0,0,0,0,0,0,0,0,0,0,0,0,0,0,0,0,0,0,0,0,0,0,0,0,0,0,0,0,0,0,0,0,0,0,0,0,0,0],"sum_hessian":[9.29E2,5.87E2,3.42E2,3.63E2,2.24E2,2.59E2,8.3E1,3.34E2,2.9E1,2.17E2,7E0,7.7E1,1.82E2,8.1E1,2E0,1.32E2,2.02E2,2.1E1,8E0,2.1E2,7E0,4E0,3E0,4.1E1,3.6E1,1.47E2,3.5E1,8E1,1E0,1E0,1E0,2.7E1,1.05E2,5.7E1,1.45E2,1.9E1,2E0,6E0,2E0,1.47E2,6.3E1,5E0,2E0,1E0,3E0,2E0,1E0,4E1,1E0,8E0,2.8E1,1.4E2,7E0,2E1,1.5E1,4E1,4E1],"tree_param":{"num_deleted":"0","num_feature":"255","num_nodes":"57","size_leaf_vector":"1"}},{"base_weights":[3.9650226E2,-9.242497E3,5.2759715E4,-2.2818008E4,1.8201646E3,4.347922E4,1.4158734E5,-2.776677E4,-1.1376831E4,-6.4225664E3,1.9474809E4,2.9594658E4,5.7784523E4,9.071044E4,1.9246425E5,-4.6873414E4,-2.5184791E4,-1.696475E4,2.0690986E3,-8.893471E3,1.4425689E4,1.0112929E4,3.7052215E4,6.575897E3,4.7767363E4,6.0014555E4,-4.782463E3,6.0941914E4,1.13036836E5,1.7697575E5,1.5658266E4,-3.1897798E3,-1.8653641E3,-1.6488732E3,-1.01126874E3,-1.9383541E3,-8.1395355E2,6.164315E0,3.4415942E3,-1.4030608E3,-3.8626218E2,6.561467E1,1.4319275E3,-6.762541E1,1.2049866E3,2.359661E3,-8.428212E2,5.726451E2,-2.6052122E3,2.2767422E3,5.544967E3,2.8123628E3,4.455657E3,2.800309E3,3.6152305E3,5.6329795E3,6.7705967E3,7.3659463E3,1.0881741E4],"categories":[],"categories_nodes":[],"categories_segments":[],"categories_sizes":[],"default_left":[0,0,0,0,0,0,0,0,0,0,0,0,0,0,0,0,0,0,0,0,0,0,0,0,0,0,0,0,0,0,0,0,0,0,0,0,0,0,0,0,0,0,0,0,0,0,0,0,0,0,0,0,0,0,0,0,0,0,0],"id":17,"left_children":[1,3,5,7,9,11,13,15,17,19,21,23,25,27,29,31,33,35,37,39,41,43,45,47,49,51,-1,53,55,57,-1,-1,-1,-1,-1,-1,-1,-1,-1,-1,-1,-1,-1,-1,-1,-1,-1,-1,-1,-1,-1,-1,-1,-1,-1,-1,-1,-1,-1],"loss_changes":[4.8050202E11,1.20745755E11,1.2200601E11,2.0439712E10,6.4466457E10,2.6615448E10,3.6238426E10,1.2431884E10,8.18969E9,1.5557243E10,2.3202623E10,2.8445286E10,2.1334344E10,4.652364E9,1.0075537E10,4.350927E9,7.2984166E9,3.0109E9,3.798219E9,8.346075E9,4.941931E9,1.2368601E10,1.5296991E10,6.2624113E9,1.269946E10,1.2062425E10,0E0,1.4707712E8,4.2992435E8,5.4750904E9,0E0,0E0,0E0,0E0,0E0,0E0,0E0,0E0,0E0,0E0,0E0,0E0,0E0,0E0,0E0,0E0,0E0,0E0,0E0,0E0,0E0,0E0,0E0,0E0,0E0,0E0,0E0,0E0,0E0],"parents":[2147483647,0,0,1,1,2,2,3,3,4,4,5,5,6,6,7,7,8,8,9,9,10,10,11,11,12,12,13,13,14,14,15,15,16,16,17,17,18,18,19,19,20,20,21,21,22,22,23,23,24,24,25,25,27,27,28,28,29,29],"right_children":[2,4,6,8,10,12,14,16,18,20,22,24,26,28,30,32,34,36,38,40,42,44,46,48,50,52,-1,54,56,58,-1,-1,-1,-1,-1,-1,-1,-1,-1,-1,-1,-1,-1,-1,-1,-1,-1,-1,-1,-1,-1,-1,-1,-1,-1,-1,-1,-1,-1],"split_conditions":[1.3747946E0,-7.1836114E-2,2.605522E0,-5.7984628E-2,3.855628E-1,7.991376E-1,1.2006943E0,-1.3315499E0,1.12867236E-1,9.0198606E-1,1.1303153E-1,5.454713E-1,3.5892637E0,2.3126422E-1,1.8000674E0,-7.951515E-1,-2.2730908E-1,-5.171998E-1,3.5161068E0,-1.3501939E0,1.2838144E0,-1.6865446E-3,4.3285794E0,1.6749791E0,2.0665057E0,3.2680268E0,-4.782463E3,-1.056875E0,1.0240287E0,3.0579466E-1,1.5658266E4,-3.1897798E3,-1.8653641E3,-1.6488732E3,-1.01126874E3,-1.9383541E3,-8.1395355E2,6.164315E0,3.4415942E3,-1.4030608E3,-3.8626218E2,6.561467E1,1.4319275E3,-6.762541E1,1.2049866E3,2.359661E3,-8.428212E2,5.726451E2,-2.6052122E3,2.2767422E3,5.544967E3,2.8123628E3,4.455657E3,2.800309E3,3.6152305E3,5.6329795E3,6.7705967E3,7.3659463E3,1.0881741E4],"split_indices":[2,2,17,10,14,7,10,14,1,10,10,14,0,11,0,2,7,3,1,5,243,1,20,10,14,238,0,0,5,1,0,0,0,0,0,0,0,0,0,0,0,0,0,0,0,0,0,0,0,0,0,0,0,0,0,0,0,0,0],"split_type":[0,0,0,0,0,0,0,0,0,0,0,0,0,0,0,0,0,0,0,0,0,0,0,0,0,0,0,0,0,0,0,0,0,0,0,0,0,0,0,0,0,0,0,0,0,0,0,0,0,0,0,0,0,0,0,0,0,0,0],"sum_hessian":[9.52E2,8.04E2,1.48E2,3.61E2,4.43E2,1.34E2,1.4E1,2.52E2,1.09E2,3.02E2,1.41E2,6.8E1,6.6E1,7E0,7E0,3E1,2.22E2,7.7E1,3.2E1,2.7E2,3.2E1,9.2E1,4.9E1,3E1,3.8E1,6.5E1,1E0,3E0,4E0,6E0,1E0,1.6E1,1.4E1,1.29E2,9.3E1,8E0,6.9E1,3.1E1,1E0,2.7E1,2.43E2,1.5E1,1.7E1,4.7E1,4.5E1,4.4E1,5E0,2.8E1,2E0,3.4E1,4E0,4.6E1,1.9E1,1E0,2E0,2E0,2E0,2E0,4E0],"tree_param":{"num_deleted":"0","num_feature":"255","num_nodes":"59","size_leaf_vector":"1"}},{"base_weights":[-6.957755E2,-1.6406479E4,2.7031744E4,-2.3437432E4,-7.339532E3,1.7264697E4,6.3486215E4,-3.7730613E4,-1.8245217E4,-1.5677733E4,-7.8398157E2,7.783963E2,2.5461275E4,6.867908E4,-1.15667516E5,-4.386328E4,-2.781012E4,-3.2855707E4,-1.5810135E4,-1.737872E4,3.1099441E4,-3.10864E4,9.8550275E2,-1.4244893E3,2.2807252E4,1.8871006E4,4.878069E4,6.262549E4,2.7147416E5,-8.172171E3,-4.520072E3,-2.5019653E3,-7.530108E2,-2.0146592E3,-1.1836117E3,-2.0649763E3,-7.532693E2,-7.538598E2,-1.576237E3,-1.01984064E3,1.4131272E3,1.299928E2,3.282561E3,-3.053596E3,-1.5129851E3,-9.2021736E1,1.727482E3,-2.1289067E2,1.3269468E3,3.1723591E3,6.1097943E2,8.7535834E2,2.8826711E3,1.749273E3,3.040576E3,2.878155E3,6.615448E3,1.4989795E4,1.4799173E4],"categories":[],"categories_nodes":[],"categories_segments":[],"categories_sizes":[],"default_left":[0,0,0,0,0,0,0,0,0,0,0,0,0,0,0,0,0,0,0,0,0,0,0,0,0,0,0,0,0,0,0,0,0,0,0,0,0,0,0,0,0,0,0,0,0,0,0,0,0,0,0,0,0,0,0,0,0,0,0],"id":18,"left_children":[1,3,5,7,9,11,13,15,17,19,21,23,25,27,29,31,33,35,37,39,41,43,45,47,49,51,53,55,57,-1,-1,-1,-1,-1,-1,-1,-1,-1,-1,-1,-1,-1,-1,-1,-1,-1,-1,-1,-1,-1,-1,-1,-1,-1,-1,-1,-1,-1,-1],"loss_changes":[4.0468988E11,3.7803327E10,1.1963364E11,2.4787239E10,1.4157327E10,3.5809788E10,6.605275E10,5.4146826E9,8.71655E9,9.070688E9,7.77485E9,4.2703805E9,2.7201585E10,8.470702E10,2.2154486E9,2.8822077E9,1.8894561E9,3.2008684E9,5.6157225E9,5.738404E9,3.3016804E9,6.8992205E8,1.11264E10,5.031376E9,3.269228E9,1.3550445E10,4.374708E9,3.9474807E10,6.029312E6,0E0,0E0,0E0,0E0,0E0,0E0,0E0,0E0,0E0,0E0,0E0,0E0,0E0,0E0,0E0,0E0,0E0,0E0,0E0,0E0,0E0,0E0,0E0,0E0,0E0,0E0,0E0,0E0,0E0,0E0],"parents":[2147483647,0,0,1,1,2,2,3,3,4,4,5,5,6,6,7,7,8,8,9,9,10,10,11,11,12,12,13,13,14,14,15,15,16,16,17,17,18,18,19,19,20,20,21,21,22,22,23,23,24,24,25,25,26,26,27,27,28,28],"right_children":[2,4,6,8,10,12,14,16,18,20,22,24,26,28,30,32,34,36,38,40,42,44,46,48,50,52,54,56,58,-1,-1,-1,-1,-1,-1,-1,-1,-1,-1,-1,-1,-1,-1,-1,-1,-1,-1,-1,-1,-1,-1,-1,-1,-1,-1,-1,-1,-1,-1],"split_conditions":[6.5147924E-1,-3.7400258E-1,1.1527429E0,-7.33674E-1,-2.590776E-1,-8.497421E-3,3.5531917E0,1.9901198E-1,1.6152923E-1,2.6477768E0,1.3727568E-1,2.220999E0,1.7244883E0,3.764582E0,7.855574E0,3.9488094E0,-7.985216E-1,-7.661591E-1,2.386891E0,1.7828586E0,6.730174E-1,-1.5184668E0,9.376279E-1,3.0705053E-1,3.184746E-1,2.220999E0,1.1647115E0,3.0484566E-1,1.1078101E0,-8.172171E3,-4.520072E3,-2.5019653E3,-7.530108E2,-2.0146592E3,-1.1836117E3,-2.0649763E3,-7.532693E2,-7.538598E2,-1.576237E3,-1.01984064E3,1.4131272E3,1.299928E2,3.282561E3,-3.053596E3,-1.5129851E3,-9.2021736E1,1.727482E3,-2.1289067E2,1.3269468E3,3.1723591E3,6.1097943E2,8.7535834E2,2.8826711E3,1.749273E3,3.040576E3,2.878155E3,6.615448E3,1.4989795E4,1.4799173E4],"split_indices":[2,14,14,244,244,14,27,23,23,26,23,243,241,14,14,16,14,14,55,14,14,2,14,23,250,243,244,23,15,0,0,0,0,0,0,0,0,0,0,0,0,0,0,0,0,0,0,0,0,0,0,0,0,0,0,0,0,0,0],"split_type":[0,0,0,0,0,0,0,0,0,0,0,0,0,0,0,0,0,0,0,0,0,0,0,0,0,0,0,0,0,0,0,0,0,0,0,0,0,0,0,0,0,0,0,0,0,0,0,0,0,0,0,0,0,0,0,0,0,0,0],"sum_hessian":[9.29E2,5.93E2,3.36E2,3.34E2,2.59E2,2.65E2,7.1E1,8.9E1,2.45E2,1.14E2,1.45E2,8.8E1,1.77E2,6.9E1,2E0,5.5E1,3.4E1,3.5E1,2.1E2,1.1E2,4E0,8E0,1.37E2,8E1,8E0,1.38E2,3.9E1,6.7E1,2E0,1E0,1E0,5.2E1,3E0,1.4E1,2E1,2.8E1,7E0,1.81E2,2.9E1,1.07E2,3E0,2E0,2E0,1E0,7E0,1.26E2,1.1E1,7.3E1,7E0,2E0,6E0,1.27E2,1.1E1,1.1E1,2.8E1,5.7E1,1E1,1E0,1E0],"tree_param":{"num_deleted":"0","num_feature":"255","num_nodes":"59","size_leaf_vector":"1"}},{"base_weights":[3.5753595E2,-1.3016278E4,2.1200768E4,-1.7823111E4,1.1518592E4,1.3897907E4,7.359086E4,-2.868701E4,-1.2701092E4,2.8880594E2,4.0216934E4,7.372563E3,3.4630332E4,5.099813E4,1.5492469E5,4.1496836E4,-3.0054227E4,-1.1018844E4,-3.0335697E4,-1.9674907E3,7.5874734E4,8.609921E4,2.9789143E4,-5.9450867E2,1.5663499E4,2.203881E4,6.182801E4,5.647744E4,-7.7238037E3,1.2951092E5,2.5657969E5,1.1643517E3,2.8329224E3,-2.0978135E3,-1.3032402E3,-4.0652863E2,-1.2426233E3,-1.5706254E3,-4.2893394E3,-7.2613824E2,3.3588303E2,4.0743862E3,4.251379E3,3.1110264E3,5.799066E3,1.4031582E3,6.490195E3,-5.194825E2,5.738276E2,5.532275E2,1.947927E3,1.0051027E3,4.678202E3,2.387234E3,4.181827E3,2.722218E3,9.309711E3,3.469222E3,8.317783E3,1.4167378E4,1.3987212E4],"categories":[],"categories_nodes":[],"categories_segments":[],"categories_sizes":[],"default_left":[0,0,0,0,0,0,0,0,0,0,0,0,0,0,0,0,0,0,0,0,0,0,0,0,0,0,0,0,0,0,0,0,0,0,0,0,0,0,0,0,0,0,0,0,0,0,0,0,0,0,0,0,0,0,0,0,0,0,0,0,0],"id":19,"left_children":[1,3,5,7,9,11,13,15,17,19,21,23,25,27,29,31,33,35,37,39,41,43,45,47,49,51,53,55,-1,57,59,-1,-1,-1,-1,-1,-1,-1,-1,-1,-1,-1,-1,-1,-1,-1,-1,-1,-1,-1,-1,-1,-1,-1,-1,-1,-1,-1,-1,-1,-1],"loss_changes":[2.681609E11,6.910991E10,1.4385668E11,2.7266105E10,3.0938513E10,4.4644442E10,8.452743E10,1.506517E10,9.878708E9,1.1767556E10,1.2918174E10,1.6579675E10,2.705435E10,3.782882E10,2.5834324E10,6.1660006E8,7.9386706E9,1.2760392E10,2.3707914E9,6.106894E9,5.202944E6,2.8804342E9,8.2060165E9,1.2554979E10,1.3617496E10,1.2698986E10,6.590513E9,2.7184554E10,0E0,1.1714486E10,5.390336E6,0E0,0E0,0E0,0E0,0E0,0E0,0E0,0E0,0E0,0E0,0E0,0E0,0E0,0E0,0E0,0E0,0E0,0E0,0E0,0E0,0E0,0E0,0E0,0E0,0E0,0E0,0E0,0E0,0E0,0E0],"parents":[2147483647,0,0,1,1,2,2,3,3,4,4,5,5,6,6,7,7,8,8,9,9,10,10,11,11,12,12,13,13,14,14,15,15,16,16,17,17,18,18,19,19,20,20,21,21,22,22,23,23,24,24,25,25,26,26,27,27,29,29,30,30],"right_children":[2,4,6,8,10,12,14,16,18,20,22,24,26,28,30,32,34,36,38,40,42,44,46,48,50,52,54,56,-1,58,60,-1,-1,-1,-1,-1,-1,-1,-1,-1,-1,-1,-1,-1,-1,-1,-1,-1,-1,-1,-1,-1,-1,-1,-1,-1,-1,-1,-1,-1,-1],"split_conditions":[4.8794115E-1,6.4528364E-1,1.4577967E0,1.6377911E-1,2.1522164E0,7.2018015E-1,1.3900228E0,1.3465178E-1,3.6878178E0,3.9247544E0,-1.1680961E0,1.9705185E0,1.9705185E0,2.0886474E0,2.1852791E0,-1.2185225E0,-8.0376786E-1,2.386891E0,8.6200166E-1,-4.2470267E-1,-1.056875E0,1.4168543E-1,2.4926596E0,4.0204722E-1,-1.9310567E-1,2.4129713E0,1.6139844E-1,2.801586E0,-7.7238037E3,-5.606292E-1,1.3671974E0,1.1643517E3,2.8329224E3,-2.0978135E3,-1.3032402E3,-4.0652863E2,-1.2426233E3,-1.5706254E3,-4.2893394E3,-7.2613824E2,3.3588303E2,4.0743862E3,4.251379E3,3.1110264E3,5.799066E3,1.4031582E3,6.490195E3,-5.194825E2,5.738276E2,5.532275E2,1.947927E3,1.0051027E3,4.678202E3,2.387234E3,4.181827E3,2.722218E3,9.309711E3,3.469222E3,8.317783E3,1.4167378E4,1.3987212E4],"split_indices":[4,11,11,19,22,7,19,141,86,26,4,40,40,0,7,9,4,55,9,7,0,23,0,11,11,171,11,7,0,26,0,0,0,0,0,0,0,0,0,0,0,0,0,0,0,0,0,0,0,0,0,0,0,0,0,0,0,0,0,0,0],"split_type":[0,0,0,0,0,0,0,0,0,0,0,0,0,0,0,0,0,0,0,0,0,0,0,0,0,0,0,0,0,0,0,0,0,0,0,0,0,0,0,0,0,0,0,0,0,0,0,0,0,0,0,0,0,0,0,0,0,0,0,0,0],"sum_hessian":[9.62E2,5.86E2,3.76E2,4.9E2,9.6E1,3.3E2,4.6E1,1.57E2,3.33E2,6.9E1,2.7E1,2.51E2,7.9E1,3.6E1,1E1,3E0,1.54E2,3.04E2,2.9E1,6.7E1,2E0,5E0,2.2E1,1.28E2,1.23E2,5.4E1,2.5E1,3.5E1,1E0,8E0,2E0,1E0,2E0,6.7E1,8.7E1,2.32E2,7.2E1,2.8E1,1E0,2.8E1,3.9E1,1E0,1E0,2E0,3E0,2.1E1,1E0,7.1E1,5.7E1,9.6E1,2.7E1,5.1E1,3E0,1.1E1,1.4E1,3.3E1,2E0,2E0,6E0,1E0,1E0],"tree_param":{"num_deleted":"0","num_feature":"255","num_nodes":"61","size_leaf_vector":"1"}},{"base_weights":[-5.6820984E0,-8.586346E3,4.7593812E4,-2.0353967E4,8.329119E2,3.4723074E4,1.0798727E5,-3.387261E4,-1.5597408E4,3.82383E3,-1.929242E4,2.6094947E4,6.50813E4,8.121637E4,1.9722362E5,-4.526172E4,-2.8087666E4,-2.4273695E4,-1.181307E4,1.5412887E3,3.0772545E4,-2.1253049E4,1.8823906E3,-2.2400799E4,2.8789154E4,5.1757332E4,9.672573E4,6.995221E4,1.4504658E5,2.1267006E5,1.6633072E5,-2.279253E3,-3.5851099E3,-2.7844504E3,-1.4101495E3,-1.5574872E3,-6.3209235E2,-7.719571E2,-1.0680951E2,-9.202649E1,6.2610455E2,1.5619507E3,5.4800757E3,-1.0316854E3,-1.8378899E3,-4.583876E2,9.4577563E2,-6.624334E2,-3.4953877E3,1.3638091E3,2.7505403E3,4.296127E3,2.3195154E3,4.7463423E3,6.9884795E3,3.4795154E3,6.526142E3,4.5035596E3,9.685233E3,9.276345E3,1.2465465E4,9.402787E3,8.848749E3],"categories":[],"categories_nodes":[],"categories_segments":[],"categories_sizes":[],"default_left":[0,0,0,0,0,0,0,0,0,0,0,0,0,0,0,0,0,0,0,0,0,0,0,0,0,0,0,0,0,0,0,0,0,0,0,0,0,0,0,0,0,0,0,0,0,0,0,0,0,0,0,0,0,0,0,0,0,0,0,0,0,0,0],"id":20,"left_children":[1,3,5,7,9,11,13,15,17,19,21,23,25,27,29,31,33,35,37,39,41,43,45,47,49,51,53,55,57,59,61,-1,-1,-1,-1,-1,-1,-1,-1,-1,-1,-1,-1,-1,-1,-1,-1,-1,-1,-1,-1,-1,-1,-1,-1,-1,-1,-1,-1,-1,-1,-1,-1],"loss_changes":[3.9577377E11,9.1001496E10,1.1504163E11,2.3470293E10,2.744811E10,3.1956025E10,6.2112367E10,6.259114E9,8.865178E9,2.4420088E10,2.4494428E9,1.2412473E10,1.1384005E10,1.4379868E10,2.863104E9,2.3899095E9,3.4060861E9,4.3019796E9,4.1864294E9,1.1627437E10,4.9353994E9,1.619413E9,7.8599994E8,2.1329234E9,7.5524833E9,4.781822E9,2.5050726E9,5.4414787E9,5.946409E9,2.5339986E9,5.098291E7,0E0,0E0,0E0,0E0,0E0,0E0,0E0,0E0,0E0,0E0,0E0,0E0,0E0,0E0,0E0,0E0,0E0,0E0,0E0,0E0,0E0,0E0,0E0,0E0,0E0,0E0,0E0,0E0,0E0,0E0,0E0,0E0],"parents":[2147483647,0,0,1,1,2,2,3,3,4,4,5,5,6,6,7,7,8,8,9,9,10,10,11,11,12,12,13,13,14,14,15,15,16,16,17,17,18,18,19,19,20,20,21,21,22,22,23,23,24,24,25,25,26,26,27,27,28,28,29,29,30,30],"right_children":[2,4,6,8,10,12,14,16,18,20,22,24,26,28,30,32,34,36,38,40,42,44,46,48,50,52,54,56,58,60,62,-1,-1,-1,-1,-1,-1,-1,-1,-1,-1,-1,-1,-1,-1,-1,-1,-1,-1,-1,-1,-1,-1,-1,-1,-1,-1,-1,-1,-1,-1,-1,-1],"split_conditions":[1.3747946E0,-7.1836114E-2,2.143103E0,-7.951515E-1,2.386891E0,1.8124247E0,2.0054317E0,2.6561806E-1,-7.098267E-1,1.5276563E0,5.60072E-1,2.578214E-1,2.7942083E0,1.9237708E0,4.4743082E-1,6.201569E0,-1.0624645E0,1.2275854E0,7.897405E-1,5.2717304E-1,2.9552214E0,5.740513E0,-7.105789E-1,4.1260986E0,1.8757064E0,3.902926E-1,6.9636635E-2,2.8214252E0,-5.0986546E-1,2.0975487E0,-2.777089E-1,-2.279253E3,-3.5851099E3,-2.7844504E3,-1.4101495E3,-1.5574872E3,-6.3209235E2,-7.719571E2,-1.0680951E2,-9.202649E1,6.2610455E2,1.5619507E3,5.4800757E3,-1.0316854E3,-1.8378899E3,-4.583876E2,9.4577563E2,-6.624334E2,-3.4953877E3,1.3638091E3,2.7505403E3,4.296127E3,2.3195154E3,4.7463423E3,6.9884795E3,3.4795154E3,6.526142E3,4.5035596E3,9.685233E3,9.276345E3,1.2465465E4,9.402787E3,8.848749E3],"split_indices":[2,2,21,2,55,7,7,252,7,21,7,59,239,9,30,88,19,18,17,7,84,124,0,213,6,232,9,2,6,7,0,0,0,0,0,0,0,0,0,0,0,0,0,0,0,0,0,0,0,0,0,0,0,0,0,0,0,0,0,0,0,0,0],"split_type":[0,0,0,0,0,0,0,0,0,0,0,0,0,0,0,0,0,0,0,0,0,0,0,0,0,0,0,0,0,0,0,0,0,0,0,0,0,0,0,0,0,0,0,0,0,0,0,0,0,0,0,0,0,0,0,0,0,0,0,0,0,0,0],"sum_hessian":[9.69E2,8.21E2,1.48E2,3.65E2,4.56E2,1.22E2,2.6E1,9.5E1,2.7E2,3.97E2,5.9E1,9.5E1,2.7E1,2E1,6E0,3.2E1,6.3E1,8.2E1,1.88E2,3.66E2,3.1E1,5.4E1,5E0,5E0,9E1,1.9E1,8E0,1.7E1,3E0,4E0,2E0,2.7E1,5E0,6E0,5.7E1,6.2E1,2E1,1.53E2,3.5E1,2.76E2,9E1,3E1,1E0,4.5E1,9E0,3E0,2E0,4E0,1E0,7.6E1,1.4E1,5E0,1.4E1,6E0,2E0,1.5E1,2E0,1E0,2E0,1E0,3E0,1E0,1E0],"tree_param":{"num_deleted":"0","num_feature":"255","num_nodes":"63","size_leaf_vector":"1"}},{"base_weights":[5.3296423E2,-9.292961E3,3.0221596E4,-1.5390797E4,1.1108441E4,1.976487E4,8.06753E4,-3.709938E4,-1.2939109E4,7.6372485E3,3.7233734E4,1.502027E3,3.1121596E4,7.2814164E4,2.3003692E5,-4.137068E4,-2.570924E4,-1.5799729E4,2.0608074E3,-2.2410475E4,9.896476E3,2.7309328E4,5.0879793E4,-2.2458318E4,6.139513E3,2.6420205E4,8.858304E4,5.8148695E4,1.0101698E5,1.2706161E4,1.2535881E4,-2.5358274E3,-1.8707856E3,-1.2337217E3,-3.8860344E3,-1.5523711E3,-7.713795E2,-1.6013788E2,7.6638165E2,-2.089136E3,-8.611633E2,1.5130845E3,4.0080048E2,1.0704406E3,2.639375E3,3.6311736E3,2.5116487E3,-1.5397296E3,2.150864E3,-9.1218176E2,4.7067E2,1.1166996E3,2.472756E3,4.354375E3,8.906134E3,2.786576E3,5.3101016E3,5.263601E3,8.886901E3],"categories":[],"categories_nodes":[],"categories_segments":[],"categories_sizes":[],"default_left":[0,0,0,0,0,0,0,0,0,0,0,0,0,0,0,0,0,0,0,0,0,0,0,0,0,0,0,0,0,0,0,0,0,0,0,0,0,0,0,0,0,0,0,0,0,0,0,0,0,0,0,0,0,0,0,0,0,0,0],"id":21,"left_children":[1,3,5,7,9,11,13,15,17,19,21,23,25,27,29,31,33,35,37,39,41,43,45,47,49,51,53,55,57,-1,-1,-1,-1,-1,-1,-1,-1,-1,-1,-1,-1,-1,-1,-1,-1,-1,-1,-1,-1,-1,-1,-1,-1,-1,-1,-1,-1,-1,-1],"loss_changes":[2.7334E11,8.758072E10,1.2292627E11,2.884667E10,1.4691123E10,4.002938E10,4.696608E10,2.675794E9,2.0896719E10,9.707502E9,2.5731502E9,8.222568E9,3.214771E10,1.5717073E10,4.816896E6,1.4105068E9,2.1811835E9,8.892826E9,4.6249943E9,1.0519685E9,6.093864E9,1.7841613E9,6.245458E8,4.1477248E9,3.4427456E9,1.244545E10,6.1180314E9,7.108215E9,4.025811E9,0E0,0E0,0E0,0E0,0E0,0E0,0E0,0E0,0E0,0E0,0E0,0E0,0E0,0E0,0E0,0E0,0E0,0E0,0E0,0E0,0E0,0E0,0E0,0E0,0E0,0E0,0E0,0E0,0E0,0E0],"parents":[2147483647,0,0,1,1,2,2,3,3,4,4,5,5,6,6,7,7,8,8,9,9,10,10,11,11,12,12,13,13,14,14,15,15,16,16,17,17,18,18,19,19,20,20,21,21,22,22,23,23,24,24,25,25,26,26,27,27,28,28],"right_children":[2,4,6,8,10,12,14,16,18,20,22,24,26,28,30,32,34,36,38,40,42,44,46,48,50,52,54,56,58,-1,-1,-1,-1,-1,-1,-1,-1,-1,-1,-1,-1,-1,-1,-1,-1,-1,-1,-1,-1,-1,-1,-1,-1,-1,-1,-1,-1,-1,-1],"split_conditions":[5.41664E-1,4.801462E-1,1.4746623E0,2.6561806E-1,1.7244883E0,3.9413288E-1,3.764582E0,-6.005396E-1,1.9705185E0,-1.2048333E0,6.20891E-1,5.181334E-1,2.0115476E0,1.7171998E0,7.8602785E-1,-8.677416E-1,5.310367E0,-1.0977628E0,3.1824896E-1,-6.571884E-1,3.3712563E-1,4.1277894E-1,7.861255E-1,-8.3067E-2,4.676514E-1,1.5391885E0,8.959194E-1,5.310367E0,2.5747864E0,1.2706161E4,1.2535881E4,-2.5358274E3,-1.8707856E3,-1.2337217E3,-3.8860344E3,-1.5523711E3,-7.713795E2,-1.6013788E2,7.6638165E2,-2.089136E3,-8.611633E2,1.5130845E3,4.0080048E2,1.0704406E3,2.639375E3,3.6311736E3,2.5116487E3,-1.5397296E3,2.150864E3,-9.1218176E2,4.7067E2,1.1166996E3,2.472756E3,4.354375E3,8.906134E3,2.786576E3,5.3101016E3,5.263601E3,8.886901E3],"split_indices":[14,10,7,252,241,5,14,14,40,5,33,54,11,25,4,7,151,10,25,7,68,27,25,10,237,14,27,151,14,0,0,0,0,0,0,0,0,0,0,0,0,0,0,0,0,0,0,0,0,0,0,0,0,0,0,0,0,0,0],"split_type":[0,0,0,0,0,0,0,0,0,0,0,0,0,0,0,0,0,0,0,0,0,0,0,0,0,0,0,0,0,0,0,0,0,0,0,0,0,0,0,0,0,0,0,0,0,0,0,0,0,0,0,0,0,0,0,0,0,0,0],"sum_hessian":[9.37E2,7.04E2,2.33E2,5.42E2,1.62E2,1.93E2,4E1,5.5E1,4.87E2,1.43E2,1.9E1,7.4E1,1.19E2,3.8E1,2E0,4E1,1.5E1,4.09E2,7.8E1,1E1,1.33E2,1.1E1,8E0,1.2E1,6.2E1,1.1E2,9E0,2.5E1,1.3E1,1E0,1E0,2.4E1,1.6E1,1.4E1,1E0,5E1,3.59E2,5.5E1,2.3E1,3E0,7E0,1.7E1,1.16E2,8E0,3E0,2E0,6E0,1.1E1,1E0,6E0,5.6E1,8.3E1,2.7E1,8E0,1E0,2.1E1,4E0,1.2E1,1E0],"tree_param":{"num_deleted":"0","num_feature":"255","num_nodes":"59","size_leaf_vector":"1"}},{"base_weights":[-2.9703574E2,-7.180227E3,3.9537605E4,-1.842493E4,1.0977874E3,3.2704518E4,1.0152346E5,-2.962565E4,-1.4833857E4,-6.5329634E3,9.266389E3,2.595449E4,7.1073086E4,6.722558E4,1.4725397E5,-4.371063E4,-2.5224096E4,-2.2355826E4,-1.0625138E4,-1.5387375E4,-1.8646206E1,5.2058364E3,2.6154592E4,2.0962477E4,4.663569E4,8.030729E4,-5.2200127E3,4.4924098E4,8.952706E4,9.7535945E4,1.7211297E5,-2.1623042E3,-3.7348923E3,-2.0479653E3,-1.1806475E3,-3.0399858E3,-1.1667736E3,-7.515656E2,1.6222081E2,-1.3916013E3,-5.373725E2,-5.437543E2,2.1606946E2,2.2817531E2,2.8562354E3,1.2426576E3,4.0633425E3,6.249418E2,1.7964719E3,2.3790916E3,6.150376E3,2.3465044E3,6.4656465E3,1.9879362E3,2.9416025E3,4.237488E3,5.586352E3,6.0485103E3,4.6541475E3,8.587672E3,1.2009034E4],"categories":[],"categories_nodes":[],"categories_segments":[],"categories_sizes":[],"default_left":[0,0,0,0,0,0,0,0,0,0,0,0,0,0,0,0,0,0,0,0,0,0,0,0,0,0,0,0,0,0,0,0,0,0,0,0,0,0,0,0,0,0,0,0,0,0,0,0,0,0,0,0,0,0,0,0,0,0,0,0,0],"id":22,"left_children":[1,3,5,7,9,11,13,15,17,19,21,23,25,27,29,31,33,35,37,39,41,43,45,47,49,51,-1,53,55,57,59,-1,-1,-1,-1,-1,-1,-1,-1,-1,-1,-1,-1,-1,-1,-1,-1,-1,-1,-1,-1,-1,-1,-1,-1,-1,-1,-1,-1,-1,-1],"loss_changes":[2.623993E11,7.595638E10,5.972122E10,1.3917012E10,2.92963E10,3.2891585E10,2.1958427E10,5.207646E9,8.294363E9,1.4016349E10,1.5566623E10,1.1150025E10,2.9162488E10,3.9788503E9,7.415636E9,2.0949647E9,2.8699197E9,3.385434E9,7.01243E9,5.747286E9,5.4797875E9,8.977152E9,7.3886925E9,9.81069E9,4.4998205E9,2.5364849E10,0E0,3.0213274E8,6.0442214E8,3.2294502E8,2.916524E9,0E0,0E0,0E0,0E0,0E0,0E0,0E0,0E0,0E0,0E0,0E0,0E0,0E0,0E0,0E0,0E0,0E0,0E0,0E0,0E0,0E0,0E0,0E0,0E0,0E0,0E0,0E0,0E0,0E0,0E0],"parents":[2147483647,0,0,1,1,2,2,3,3,4,4,5,5,6,6,7,7,8,8,9,9,10,10,11,11,12,12,13,13,14,14,15,15,16,16,17,17,18,18,19,19,20,20,21,21,22,22,23,23,24,24,25,25,27,27,28,28,29,29,30,30],"right_children":[2,4,6,8,10,12,14,16,18,20,22,24,26,28,30,32,34,36,38,40,42,44,46,48,50,52,-1,54,56,58,60,-1,-1,-1,-1,-1,-1,-1,-1,-1,-1,-1,-1,-1,-1,-1,-1,-1,-1,-1,-1,-1,-1,-1,-1,-1,-1,-1,-1,-1,-1],"split_conditions":[1.3747946E0,-7.1836114E-2,2.605522E0,-7.951515E-1,-8.807793E-2,1.8979619E0,1.1007049E0,-1.1065359E0,-4.3128246E-1,4.548204E-1,8.2764995E-1,2.09811E0,4.6786823E0,2.3126422E-1,2.09811E0,3.6681664E0,-5.171998E-1,-1.4161423E0,9.111906E-2,3.8174272E-1,-5.95903E-1,1.8221539E0,2.128901E0,-3.430202E-2,5.653697E-1,1.9615175E-1,-5.2200127E3,1.418314E-1,1.1172353E0,2.260179E-1,3.8174272E-1,-2.1623042E3,-3.7348923E3,-2.0479653E3,-1.1806475E3,-3.0399858E3,-1.1667736E3,-7.515656E2,1.6222081E2,-1.3916013E3,-5.373725E2,-5.437543E2,2.1606946E2,2.2817531E2,2.8562354E3,1.2426576E3,4.0633425E3,6.249418E2,1.7964719E3,2.3790916E3,6.150376E3,2.3465044E3,6.4656465E3,1.9879362E3,2.9416025E3,4.237488E3,5.586352E3,6.0485103E3,4.6541475E3,8.587672E3,1.2009034E4],"split_indices":[2,2,17,2,1,7,11,11,7,4,7,2,1,11,2,233,3,3,1,3,1,1,12,7,1,1,0,1,4,1,3,0,0,0,0,0,0,0,0,0,0,0,0,0,0,0,0,0,0,0,0,0,0,0,0,0,0,0,0,0,0],"split_type":[0,0,0,0,0,0,0,0,0,0,0,0,0,0,0,0,0,0,0,0,0,0,0,0,0,0,0,0,0,0,0,0,0,0,0,0,0,0,0,0,0,0,0,0,0,0,0,0,0,0,0,0,0,0,0,0,0,0,0,0,0],"sum_hessian":[9.57E2,8.16E2,1.41E2,3.46E2,4.7E2,1.27E2,1.4E1,8.4E1,2.62E2,2.43E2,2.27E2,1.08E2,1.9E1,8E0,6E0,2E1,6.4E1,9.4E1,1.68E2,1.03E2,1.4E2,1.83E2,4.4E1,8.7E1,2.1E1,1.8E1,1E0,4E0,4E0,2E0,4E0,1.7E1,3E0,1.5E1,4.9E1,3E0,9.1E1,1.37E2,3.1E1,3.7E1,6.6E1,4E1,1E2,1.79E2,4E0,4.1E1,3E0,4.8E1,3.9E1,2E1,1E0,9E0,9E0,2E0,2E0,2E0,2E0,1E0,1E0,3E0,1E0],"tree_param":{"num_deleted":"0","num_feature":"255","num_nodes":"61","size_leaf_vector":"1"}},{"base_weights":[-1.8631556E1,-1.1457996E4,1.9515254E4,-2.1355607E4,-5.027345E3,8.254429E3,4.755241E4,-2.7750816E4,-1.3874417E4,-8.478978E3,1.1885653E4,1.1357603E3,3.2152818E4,3.8591566E4,1.0131748E5,-3.134561E4,-1.5974772E4,-1.8523809E4,-9.225026E3,-1.4763E4,-4.2658267E3,-1.2104452E4,1.788318E4,-2.2905825E3,1.992157E4,2.1132756E4,4.918382E4,3.370548E4,7.930893E4,8.404181E4,1.646616E5,-1.7820051E3,-3.0423352E2,-1.0484867E3,-3.3580075E2,-1.7425007E3,-8.6777386E2,-4.30707E2,-1.4301E3,-2.2645127E3,-7.182473E2,-2.5930438E2,4.186269E3,-9.7687616E2,2.776279E3,7.684152E2,2.4704075E3,-7.262003E2,2.5640633E1,1.1709651E3,-1.0899949E3,9.455582E2,3.3696975E3,2.139657E3,3.505669E3,1.5280867E3,2.6229888E3,5.134411E3,-1.9135848E3,4.032921E3,7.2121943E3,1.1350154E4,7.876208E3],"categories":[],"categories_nodes":[],"categories_segments":[],"categories_sizes":[],"default_left":[0,0,0,0,0,0,0,0,0,0,0,0,0,0,0,0,0,0,0,0,0,0,0,0,0,0,0,0,0,0,0,0,0,0,0,0,0,0,0,0,0,0,0,0,0,0,0,0,0,0,0,0,0,0,0,0,0,0,0,0,0,0,0],"id":23,"left_children":[1,3,5,7,9,11,13,15,17,19,21,23,25,27,29,31,33,35,37,39,41,43,45,47,49,51,53,55,57,59,61,-1,-1,-1,-1,-1,-1,-1,-1,-1,-1,-1,-1,-1,-1,-1,-1,-1,-1,-1,-1,-1,-1,-1,-1,-1,-1,-1,-1,-1,-1,-1,-1],"loss_changes":[2.0691953E11,3.717047E10,1.0797675E11,1.1004076E10,2.0665618E10,4.1510433E10,4.721451E10,5.2492206E9,2.2913843E9,7.783805E9,8.632877E9,1.2100925E10,1.051023E10,1.6711664E10,1.5320351E10,2.7797012E9,8.960353E8,1.8991985E9,1.2270408E9,5.2301414E9,6.5281044E9,4.289539E9,5.0522E9,4.7997056E9,1.6396524E9,5.3398036E9,3.2966943E9,6.1914726E9,1.4668472E10,5.4946693E9,2.672763E9,0E0,0E0,0E0,0E0,0E0,0E0,0E0,0E0,0E0,0E0,0E0,0E0,0E0,0E0,0E0,0E0,0E0,0E0,0E0,0E0,0E0,0E0,0E0,0E0,0E0,0E0,0E0,0E0,0E0,0E0,0E0,0E0],"parents":[2147483647,0,0,1,1,2,2,3,3,4,4,5,5,6,6,7,7,8,8,9,9,10,10,11,11,12,12,13,13,14,14,15,15,16,16,17,17,18,18,19,19,20,20,21,21,22,22,23,23,24,24,25,25,26,26,27,27,28,28,29,29,30,30],"right_children":[2,4,6,8,10,12,14,16,18,20,22,24,26,28,30,32,34,36,38,40,42,44,46,48,50,52,54,56,58,60,62,-1,-1,-1,-1,-1,-1,-1,-1,-1,-1,-1,-1,-1,-1,-1,-1,-1,-1,-1,-1,-1,-1,-1,-1,-1,-1,-1,-1,-1,-1,-1,-1],"split_conditions":[1.0523022E0,-6.9572324E-1,8.3482957E-1,-8.4747046E-2,2.613963E-1,1.0096908E0,1.8782225E0,2.3428378E0,3.1172463E-1,3.1172463E-1,2.7116308E-1,9.311672E-1,3.5510406E-1,2.1048827E0,1.08913E0,1.2590637E0,-5.811155E-2,-3.349248E-1,5.4830494E0,-2.3811236E-1,2.1521711E0,1.1288179E0,7.1514235E0,1.1209677E0,1.323859E-1,5.310367E0,1.8979619E0,1.2838144E0,2.666989E0,8.511334E-3,1.1288179E0,-1.7820051E3,-3.0423352E2,-1.0484867E3,-3.3580075E2,-1.7425007E3,-8.6777386E2,-4.30707E2,-1.4301E3,-2.2645127E3,-7.182473E2,-2.5930438E2,4.186269E3,-9.7687616E2,2.776279E3,7.684152E2,2.4704075E3,-7.262003E2,2.5640633E1,1.1709651E3,-1.0899949E3,9.455582E2,3.3696975E3,2.139657E3,3.505669E3,1.5280867E3,2.6229888E3,5.134411E3,-1.9135848E3,4.032921E3,7.2121943E3,1.1350154E4,7.876208E3],"split_indices":[239,14,14,7,1,7,7,91,24,24,206,25,14,9,1,26,1,1,73,240,14,1,83,185,7,66,7,243,25,9,1,0,0,0,0,0,0,0,0,0,0,0,0,0,0,0,0,0,0,0,0,0,0,0,0,0,0,0,0,0,0,0,0],"split_type":[0,0,0,0,0,0,0,0,0,0,0,0,0,0,0,0,0,0,0,0,0,0,0,0,0,0,0,0,0,0,0,0,0,0,0,0,0,0,0,0,0,0,0,0,0,0,0,0,0,0,0,0,0,0,0,0,0,0,0,0,0,0,0],"sum_hessian":[9.26E2,5.84E2,3.42E2,2.3E2,3.54E2,2.44E2,9.8E1,1.24E2,1.06E2,2.94E2,6E1,1.88E2,5.6E1,8.4E1,1.4E1,9.5E1,2.9E1,5.3E1,5.3E1,1.18E2,1.76E2,1.2E1,4.8E1,1.59E2,2.9E1,3.4E1,2.2E1,7.5E1,9E0,1.1E1,3E0,9.1E1,4E0,2.2E1,7E0,9E0,4.4E1,4.9E1,4E0,7E0,1.11E2,1.75E2,1E0,1.1E1,1E0,4.2E1,6E0,3.2E1,1.27E2,2.8E1,1E0,3.1E1,3E0,1.3E1,9E0,5.3E1,2.2E1,8E0,1E0,9E0,2E0,1E0,2E0],"tree_param":{"num_deleted":"0","num_feature":"255","num_nodes":"63","size_leaf_vector":"1"}},{"base_weights":[6.3629947E0,-7.3220527E3,2.5812111E4,-1.5464917E4,2.703696E3,1.7379537E4,5.5236414E4,-2.029256E4,-8.851323E3,-5.263253E3,1.4835187E4,1.1168184E4,3.728772E4,6.3742875E4,-1.3615898E5,-4.2890195E4,-1.8873875E4,-9.857666E3,2.4961777E4,-1.391746E4,-9.3614923E2,2.3811195E4,8.221285E3,1.4717926E4,-2.9653852E4,2.2199621E4,5.681349E4,5.282274E4,1.2302363E5,-9.575034E3,-5.3657446E3,-2.7380842E3,-1.3909159E3,-1.3334894E3,-7.79761E2,-5.709835E2,1.9608383E3,3.7780148E2,2.85713E3,-1.4410664E3,-6.0048663E2,1.2282254E1,-2.1198008E3,-2.624916E2,1.7342871E3,5.4525934E2,-1.841062E3,-1.0243279E3,9.262316E2,-1.9705383E3,-2.526688E2,-2.2754861E2,1.6431442E3,3.9675696E3,2.1602864E3,3.8250427E3,1.8682272E3,4.246119E3,8.627414E3],"categories":[],"categories_nodes":[],"categories_segments":[],"categories_sizes":[],"default_left":[0,0,0,0,0,0,0,0,0,0,0,0,0,0,0,0,0,0,0,0,0,0,0,0,0,0,0,0,0,0,0,0,0,0,0,0,0,0,0,0,0,0,0,0,0,0,0,0,0,0,0,0,0,0,0,0,0,0,0],"id":24,"left_children":[1,3,5,7,9,11,13,15,17,19,21,23,25,27,29,31,33,35,37,39,41,43,45,47,49,51,53,55,57,-1,-1,-1,-1,-1,-1,-1,-1,-1,-1,-1,-1,-1,-1,-1,-1,-1,-1,-1,-1,-1,-1,-1,-1,-1,-1,-1,-1,-1,-1],"loss_changes":[1.8041595E11,6.0657267E10,5.235386E10,1.3090505E10,3.218477E10,2.0279706E10,7.65206E10,7.5979653E9,5.886767E9,7.5269775E9,7.836371E9,1.8113464E10,1.1489661E10,2.9130932E10,2.9430252E9,1.7225912E9,5.6456397E9,4.2082468E9,2.4505042E9,2.4593838E9,5.860205E9,1.2488544E10,5.4512297E9,8.308992E9,1.5685796E9,4.4916634E9,4.5955973E9,1.2051046E10,1.0931864E10,0E0,0E0,0E0,0E0,0E0,0E0,0E0,0E0,0E0,0E0,0E0,0E0,0E0,0E0,0E0,0E0,0E0,0E0,0E0,0E0,0E0,0E0,0E0,0E0,0E0,0E0,0E0,0E0,0E0,0E0],"parents":[2147483647,0,0,1,1,2,2,3,3,4,4,5,5,6,6,7,7,8,8,9,9,10,10,11,11,12,12,13,13,14,14,15,15,16,16,17,17,18,18,19,19,20,20,21,21,22,22,23,23,24,24,25,25,26,26,27,27,28,28],"right_children":[2,4,6,8,10,12,14,16,18,20,22,24,26,28,30,32,34,36,38,40,42,44,46,48,50,52,54,56,58,-1,-1,-1,-1,-1,-1,-1,-1,-1,-1,-1,-1,-1,-1,-1,-1,-1,-1,-1,-1,-1,-1,-1,-1,-1,-1,-1,-1,-1,-1],"split_conditions":[6.1400354E-1,5.8316785E-1,1.7244883E0,8.235053E-1,4.0204722E-1,1.7181337E0,3.49943E0,-1.4000821E0,5.256182E0,-6.005396E-1,-5.4426637E-4,3.4525867E0,3.9768082E-1,2.605522E0,2.2040794E0,1.2806852E0,3.8174272E-1,2.2906535E0,1.0572294E-1,-8.762377E-1,1.0162958E1,8.9117944E-1,2.7387748E0,2.7116308E-1,-3.6110148E-1,-9.4911844E-1,7.6051193E-1,3.902926E-1,8.0054086E-1,-9.575034E3,-5.3657446E3,-2.7380842E3,-1.3909159E3,-1.3334894E3,-7.79761E2,-5.709835E2,1.9608383E3,3.7780148E2,2.85713E3,-1.4410664E3,-6.0048663E2,1.2282254E1,-2.1198008E3,-2.624916E2,1.7342871E3,5.4525934E2,-1.841062E3,-1.0243279E3,9.262316E2,-1.9705383E3,-2.526688E2,-2.2754861E2,1.6431442E3,3.9675696E3,2.1602864E3,3.8250427E3,1.8682272E3,4.246119E3,8.627414E3],"split_indices":[14,241,241,208,11,14,11,14,85,14,9,96,27,17,0,3,3,0,14,11,200,246,9,206,26,9,64,232,11,0,0,0,0,0,0,0,0,0,0,0,0,0,0,0,0,0,0,0,0,0,0,0,0,0,0,0,0,0,0],"split_type":[0,0,0,0,0,0,0,0,0,0,0,0,0,0,0,0,0,0,0,0,0,0,0,0,0,0,0,0,0,0,0,0,0,0,0,0,0,0,0,0,0,0,0,0,0,0,0,0,0,0,0,0,0,0,0,0,0,0,0],"sum_hessian":[9.54E2,7.43E2,2.11E2,4.1E2,3.33E2,1.64E2,4.7E1,2.37E2,1.73E2,2.01E2,1.32E2,1.25E2,3.9E1,4.5E1,2E0,1.4E1,2.23E2,1.68E2,5E0,6.7E1,1.34E2,5.6E1,7.6E1,1.15E2,1E1,2.2E1,1.7E1,3.8E1,7E0,1E0,1E0,1E1,4E0,1.03E2,1.2E2,1.66E2,2E0,3E0,2E0,1.3E1,5.4E1,1.3E2,4E0,1.2E1,4.4E1,7.3E1,3E0,7E0,1.08E2,8E0,2E0,5E0,1.7E1,9E0,8E0,2E1,1.8E1,3E0,4E0],"tree_param":{"num_deleted":"0","num_feature":"255","num_nodes":"59","size_leaf_vector":"1"}},{"base_weights":[1.2941432E3,-6.140209E3,3.6767934E4,-1.1582151E4,9.038541E3,2.555692E4,6.4199145E4,-1.7564746E4,-5.2755884E3,4.7865005E3,3.6913027E4,2.115521E4,4.7797125E4,6.760419E4,-5.071352E3,-3.6184758E4,-1.5589896E4,-1.0455836E4,9.324851E2,-4.9258182E2,1.345365E4,4.603258E3,4.2532117E4,2.3292469E4,-4.5099727E4,-1.0691968E4,5.4678195E4,5.673059E4,1.4009486E5,-2.2392844E3,-1.0539495E3,-1.5288195E3,-7.5240967E2,-8.125458E2,-1.5669983E2,-3.7148598E1,1.5524238E3,3.3878403E1,-3.3158416E3,4.3185425E2,1.3646252E3,-3.055031E2,8.106204E2,1.6628224E3,3.2054568E3,8.3799446E1,1.5075895E3,-9.5979755E2,-5.5036206E3,-1.9711761E3,7.979422E2,1.1111935E3,3.4046594E3,2.9197446E3,6.775555E3,4.330158E3,9.36442E3],"categories":[],"categories_nodes":[],"categories_segments":[],"categories_sizes":[],"default_left":[0,0,0,0,0,0,0,0,0,0,0,0,0,0,0,0,0,0,0,0,0,0,0,0,0,0,0,0,0,0,0,0,0,0,0,0,0,0,0,0,0,0,0,0,0,0,0,0,0,0,0,0,0,0,0,0,0],"id":25,"left_children":[1,3,5,7,9,11,13,15,17,19,21,23,25,27,-1,29,31,33,35,37,39,41,43,45,47,49,51,53,55,-1,-1,-1,-1,-1,-1,-1,-1,-1,-1,-1,-1,-1,-1,-1,-1,-1,-1,-1,-1,-1,-1,-1,-1,-1,-1,-1,-1],"loss_changes":[2.4658256E11,6.3851246E10,4.982014E10,2.1468152E10,2.4178778E10,1.1257905E10,2.5066947E10,1.0737345E10,8.908142E9,8.098565E9,4.901892E9,1.359396E10,7.64688E9,3.625879E10,0E0,2.2004122E9,6.0797747E9,4.9965087E9,5.5493376E9,7.319546E9,4.2708716E9,4.138382E8,4.468351E9,8.4722893E9,4.5725425E9,1.2736765E9,4.317094E9,9.384083E9,1.1225776E10,0E0,0E0,0E0,0E0,0E0,0E0,0E0,0E0,0E0,0E0,0E0,0E0,0E0,0E0,0E0,0E0,0E0,0E0,0E0,0E0,0E0,0E0,0E0,0E0,0E0,0E0,0E0,0E0],"parents":[2147483647,0,0,1,1,2,2,3,3,4,4,5,5,6,6,7,7,8,8,9,9,10,10,11,11,12,12,13,13,15,15,16,16,17,17,18,18,19,19,20,20,21,21,22,22,23,23,24,24,25,25,26,26,27,27,28,28],"right_children":[2,4,6,8,10,12,14,16,18,20,22,24,26,28,-1,30,32,34,36,38,40,42,44,46,48,50,52,54,56,-1,-1,-1,-1,-1,-1,-1,-1,-1,-1,-1,-1,-1,-1,-1,-1,-1,-1,-1,-1,-1,-1,-1,-1,-1,-1,-1,-1],"split_conditions":[1.3747946E0,6.5147924E-1,2.09811E0,-1.3949184E-1,3.3816636E-1,1.1473283E0,3.5161068E0,-5.171998E-1,-7.1836114E-2,1.1078101E0,-6.029561E-1,2.7387748E0,7.3599434E-1,2.6440706E0,-5.071352E3,-8.3067E-2,-1.1661693E0,-1.9349818E-1,1.08913E0,8.485281E0,5.9663165E-1,3.8174272E-1,1.2275854E0,-5.128189E-1,1.1450905E0,1.6307847E-1,-8.807793E-2,3.3739958E0,1.8453236E0,-2.2392844E3,-1.0539495E3,-1.5288195E3,-7.5240967E2,-8.125458E2,-1.5669983E2,-3.7148598E1,1.5524238E3,3.3878403E1,-3.3158416E3,4.3185425E2,1.3646252E3,-3.055031E2,8.106204E2,1.6628224E3,3.2054568E3,8.3799446E1,1.5075895E3,-9.5979755E2,-5.5036206E3,-1.9711761E3,7.979422E2,1.1111935E3,3.4046594E3,2.9197446E3,6.775555E3,4.330158E3,9.36442E3],"split_indices":[2,2,2,1,1,26,1,3,2,15,10,9,248,10,0,10,10,26,1,236,26,3,18,1,6,1,1,21,7,0,0,0,0,0,0,0,0,0,0,0,0,0,0,0,0,0,0,0,0,0,0,0,0,0,0,0,0],"split_type":[0,0,0,0,0,0,0,0,0,0,0,0,0,0,0,0,0,0,0,0,0,0,0,0,0,0,0,0,0,0,0,0,0,0,0,0,0,0,0,0,0,0,0,0,0,0,0,0,0,0,0,0,0,0,0,0,0],"sum_hessian":[9.35E2,7.73E2,1.62E2,5.69E2,2.04E2,1.15E2,4.7E1,2.92E2,2.77E2,1.77E2,2.7E1,9.6E1,1.9E1,4.6E1,1E0,2.8E1,2.64E2,1.51E2,1.26E2,1.1E2,6.7E1,4E0,2.3E1,9.3E1,3E0,2E0,1.7E1,4E1,6E0,2.2E1,6E0,3.5E1,2.29E2,9.6E1,5.5E1,1.19E2,7E0,1.08E2,2E0,4.5E1,2.2E1,2E0,2E0,1.3E1,1E1,1.5E1,7.8E1,2E0,1E0,1E0,1E0,3E0,1.4E1,3.8E1,2E0,2E0,4E0],"tree_param":{"num_deleted":"0","num_feature":"255","num_nodes":"57","size_leaf_vector":"1"}},{"base_weights":[1.3305897E3,-1.1033816E4,1.447298E4,-1.4078589E4,7.686033E2,8.825934E3,4.6900723E4,-1.4696382E4,4.3376156E4,-2.651874E3,2.7510516E4,5.9982783E3,3.847347E4,4.1223293E4,1.6612672E5,-2.4531121E4,-1.2001934E4,7.773246E4,9.019843E3,1.4791642E3,-2.5849242E4,3.7837214E3,2.336517E4,-9.400701E3,9.426319E3,2.863594E4,5.5689145E4,4.4594406E4,-6.1595574E4,1.8143411E5,7.4348887E3,-1.4983492E3,-3.8966345E2,-8.978417E2,-4.4103683E2,5.556033E3,2.9735803E3,-8.115848E2,1.8013357E3,-1.8637347E2,3.7161374E2,-2.5508843E3,-1.3238354E3,1.5872781E3,5.6946674E2,-1.0653732E3,-1.9975027E2,4.081895E2,2.0315281E3,3.6149402E3,1.3559772E3,-1.03428604E2,3.342562E3,1.6954016E3,3.604903E3,-4.793111E3,-1.9657959E3,9.740301E3,1.0168537E4],"categories":[],"categories_nodes":[],"categories_segments":[],"categories_sizes":[],"default_left":[0,0,0,0,0,0,0,0,0,0,0,0,0,0,0,0,0,0,0,0,0,0,0,0,0,0,0,0,0,0,0,0,0,0,0,0,0,0,0,0,0,0,0,0,0,0,0,0,0,0,0,0,0,0,0,0,0,0,0],"id":26,"left_children":[1,3,5,7,9,11,13,15,17,19,21,23,25,27,29,31,33,35,37,39,41,-1,43,45,47,49,51,53,55,57,-1,-1,-1,-1,-1,-1,-1,-1,-1,-1,-1,-1,-1,-1,-1,-1,-1,-1,-1,-1,-1,-1,-1,-1,-1,-1,-1,-1,-1],"loss_changes":[1.4917303E11,1.6997585E10,8.148885E10,1.3346169E10,8.8726E9,3.1772709E10,4.4675203E10,9.857704E9,4.7214244E9,8.2413123E9,1.8902267E9,1.8264764E10,5.588869E9,2.1836669E10,1.4058947E9,3.874136E9,5.048828E9,1.1077489E9,1.1340404E9,1.8844445E9,4.617083E8,0E0,7.2270336E8,3.6350536E9,1.5516557E10,3.0675292E9,3.6161454E9,1.7633116E10,1.3277747E9,3.0461952E7,0E0,0E0,0E0,0E0,0E0,0E0,0E0,0E0,0E0,0E0,0E0,0E0,0E0,0E0,0E0,0E0,0E0,0E0,0E0,0E0,0E0,0E0,0E0,0E0,0E0,0E0,0E0,0E0,0E0],"parents":[2147483647,0,0,1,1,2,2,3,3,4,4,5,5,6,6,7,7,8,8,9,9,10,10,11,11,12,12,13,13,14,14,15,15,16,16,17,17,18,18,19,19,20,20,22,22,23,23,24,24,25,25,26,26,27,27,28,28,29,29],"right_children":[2,4,6,8,10,12,14,16,18,20,22,24,26,28,30,32,34,36,38,40,42,-1,44,46,48,50,52,54,56,58,-1,-1,-1,-1,-1,-1,-1,-1,-1,-1,-1,-1,-1,-1,-1,-1,-1,-1,-1,-1,-1,-1,-1,-1,-1,-1,-1,-1,-1],"split_conditions":[7.3599434E-1,7.745735E-1,1.3055842E0,4.6163473E0,1.8951592E0,1.7920378E0,2.8461676E0,-1.640915E0,5.287526E-1,3.4525867E0,2.3757093E-1,-6.3715935E-1,2.2526467E0,3.0927567E0,5.8794695E-1,1.2275854E0,-2.723249E-1,-9.1411215E-1,-1.0110192E0,-1.8730937E-1,-8.788622E-1,3.7837214E3,4.3285794E0,1.2275854E0,2.1522164E0,2.9722583E-1,-1.7955087E0,1.9258028E0,1.1693892E0,5.3949344E-1,7.4348887E3,-1.4983492E3,-3.8966345E2,-8.978417E2,-4.4103683E2,5.556033E3,2.9735803E3,-8.115848E2,1.8013357E3,-1.8637347E2,3.7161374E2,-2.5508843E3,-1.3238354E3,1.5872781E3,5.6946674E2,-1.0653732E3,-1.9975027E2,4.081895E2,2.0315281E3,3.6149402E3,1.3559772E3,-1.03428604E2,3.342562E3,1.6954016E3,3.604903E3,-4.793111E3,-1.9657959E3,9.740301E3,1.0168537E4],"split_indices":[248,12,10,8,12,12,12,5,135,96,76,10,12,25,5,18,10,5,5,5,10,0,20,18,22,5,10,10,5,5,0,0,0,0,0,0,0,0,0,0,0,0,0,0,0,0,0,0,0,0,0,0,0,0,0,0,0,0,0],"split_type":[0,0,0,0,0,0,0,0,0,0,0,0,0,0,0,0,0,0,0,0,0,0,0,0,0,0,0,0,0,0,0,0,0,0,0,0,0,0,0,0,0,0,0,0,0,0,0,0,0,0,0,0,0,0,0,0,0,0,0],"sum_hessian":[9.18E2,4.73E2,4.45E2,3.76E2,9.7E1,3.79E2,6.6E1,3.72E2,4E0,8.6E1,1.1E1,3.46E2,3.3E1,6.3E1,3E0,8E1,2.92E2,2E0,2E0,7.3E1,1.3E1,1E0,1E1,6.3E1,2.83E2,2.1E1,1.2E1,6.1E1,2E0,2E0,1E0,6.9E1,1.1E1,1.39E2,1.53E2,1E0,1E0,1E0,1E0,3.8E1,3.5E1,1E0,1.2E1,7E0,3E0,2.3E1,4E1,2.64E2,1.9E1,2E0,1.9E1,1E0,1.1E1,3.7E1,2.4E1,1E0,1E0,1E0,1E0],"tree_param":{"num_deleted":"0","num_feature":"255","num_nodes":"59","size_leaf_vector":"1"}},{"base_weights":[-2.2053418E2,-5.943583E3,3.1844773E4,-1.2908076E4,4.78308E3,1.6875494E4,5.3266332E4,-2.498059E4,-1.03036E4,-1.8270874E3,1.2350582E4,1.2371461E4,3.907394E4,5.7322117E4,-9.761263E3,-3.908905E4,-2.2433229E4,-1.8609861E4,-8.350717E3,-1.3023742E4,2.5951208E3,3.967036E3,1.7780834E4,5.3951874E2,1.9094156E4,2.718665E4,5.492366E4,4.4047625E4,1.0225117E5,-2.4585544E3,-1.0982092E3,-1.1480923E3,-2.339136E3,-9.754191E2,-2.6859685E3,-8.3567163E2,-3.275492E2,-8.364488E2,5.95859E2,-1.0878169E3,2.6767984E2,2.4061882E3,1.3806908E2,-7.180457E2,1.1449084E3,-1.1681192E2,1.713347E3,9.12093E2,6.8746035E3,2.942544E3,1.00795325E3,3.1679192E3,2.2407888E3,1.7036227E3,3.9446655E3,4.4537065E3,6.959076E3],"categories":[],"categories_nodes":[],"categories_segments":[],"categories_sizes":[],"default_left":[0,0,0,0,0,0,0,0,0,0,0,0,0,0,0,0,0,0,0,0,0,0,0,0,0,0,0,0,0,0,0,0,0,0,0,0,0,0,0,0,0,0,0,0,0,0,0,0,0,0,0,0,0,0,0,0,0],"id":27,"left_children":[1,3,5,7,9,11,13,15,17,19,21,23,25,27,-1,29,31,33,35,37,39,41,43,45,47,49,51,53,55,-1,-1,-1,-1,-1,-1,-1,-1,-1,-1,-1,-1,-1,-1,-1,-1,-1,-1,-1,-1,-1,-1,-1,-1,-1,-1,-1,-1],"loss_changes":[1.7084904E11,5.901756E10,4.521381E10,1.5060992E10,1.5556986E10,8.298549E9,5.4381756E10,3.0548541E9,6.391136E9,8.2193147E9,6.601089E9,5.488435E9,2.6377462E9,3.3995407E10,0E0,1.4186742E9,2.1926707E9,1.8922086E9,5.225335E9,2.4940733E9,6.0935803E9,3.2980375E9,8.3850936E9,2.0473946E9,1.1541976E10,1.8649856E9,2.3795917E8,1.5925862E10,6.7368387E9,0E0,0E0,0E0,0E0,0E0,0E0,0E0,0E0,0E0,0E0,0E0,0E0,0E0,0E0,0E0,0E0,0E0,0E0,0E0,0E0,0E0,0E0,0E0,0E0,0E0,0E0,0E0,0E0],"parents":[2147483647,0,0,1,1,2,2,3,3,4,4,5,5,6,6,7,7,8,8,9,9,10,10,11,11,12,12,13,13,15,15,16,16,17,17,18,18,19,19,20,20,21,21,22,22,23,23,24,24,25,25,26,26,27,27,28,28],"right_children":[2,4,6,8,10,12,14,16,18,20,22,24,26,28,-1,30,32,34,36,38,40,42,44,46,48,50,52,54,56,-1,-1,-1,-1,-1,-1,-1,-1,-1,-1,-1,-1,-1,-1,-1,-1,-1,-1,-1,-1,-1,-1,-1,-1,-1,-1,-1,-1],"split_conditions":[1.3747946E0,-5.037822E-2,1.0099674E0,-7.951515E-1,2.1551876E-1,2.09811E0,4.7089915E0,-1.5184668E0,1.8798766E-1,-7.1836114E-2,3.1322327E-1,3.650366E-1,9.9089134E-1,1.6281906E0,-9.761263E3,-7.5318825E-1,1.20415945E1,2.1193454E-2,-1.0003109E0,1.6201689E0,2.7116308E-1,1.3465178E-1,2.7116308E-1,2.1008923E0,2.3741026E0,-2.2204706E-1,1.1229506E0,2.1521711E0,2.3627837E0,-2.4585544E3,-1.0982092E3,-1.1480923E3,-2.339136E3,-9.754191E2,-2.6859685E3,-8.3567163E2,-3.275492E2,-8.364488E2,5.95859E2,-1.0878169E3,2.6767984E2,2.4061882E3,1.3806908E2,-7.180457E2,1.1449084E3,